{"ip_size": 784, "hidden_layers": [50, 50, 30], "op_size": 10, "weights": [[[0.293971865417583, -0.05677844315721556, 0.10734586552721762, -0.29032096343580854, 0.0660304705656605, -0.10921450583181048, -0.17439543659373022, 0.3383172069789439, -0.04612179112474285, 0.12944556512087707, -0.0213135134985647, 0.032319791570797035, -0.05557891415271802, -0.1088190502939843, -0.3668468057455168, -0.1497549314790401, -0.09481634759362083, -0.11630232667976745, -0.08118637918013687, 0.04697823952167536, -0.15901710714063355, -0.16009692796990602, 0.1033664538513339, 0.09442699094235432, -0.14026495752139037, -0.14946672884598028, -0.19949689791846584, 0.19696729058220377, 0.04832831685590388, -0.096817503927081, -0.0352508199165602, 0.011212277959045181, 0.03477676119473609, 0.11436650546057632, -0.14592526328782918, -0.06626679844547248, 0.04420010498222536, 0.07605973247883378, 0.018147223822730246, -0.1532340578134507, 0.15762364041028493, 0.059760218591781676, -0.249868715357633, 0.057402165411869516, 0.22701535454809432, -0.08124099542118518, 0.06850645964531354, 0.24176904318340814, 0.10076355605057366, -0.09236687798580236], [-0.056579401171029595, -0.03130488081841411, -0.06267423657730349, 0.17747563871313052, 0.06823209655125195, 0.0944736143082664, -0.022391359499270944, -0.058874917947002954, -0.1148268440973028, -0.11131576562612065, -0.10829674155700443, 0.23593361533295265, 0.08155747578361125, -0.07586822782997724, 0.10380237752314574, -0.20823923347250783, 0.2330267151242794, 0.03704909402500044, 0.12840824096292547, 0.03303172794626786, -0.09771748624551425, -0.022388883396952438, -0.07769748461485108, -0.1750049168616262, 0.12451078262863936, -0.059422062177883796, -0.005037262038719781, 0.11241364673337587, -0.0018901630735326253, 0.11917433713344962, 0.09802657151538303, -0.20622687180741495, 0.17222062496902896, -0.10510963413346865, 0.24237271104020083, -0.07435102551701278, 0.19091193934761372, 0.1708470658331675, -0.21726809614454828, 0.2630753733800709, 0.1930106530474661, -0.02393242533556019, -0.09760352316750305, -0.16803121277559327, -0.04040151483325071, 0.29701917421270324, -0.08182386171022511, -0.0029137172487822965, -0.15717157550193292, 0.12564531626358538], [-0.01934295228261619, 0.06592631102052414, -0.006940275448656842, 0.1254375035794356, 0.05501743589217116, -0.10331991874758233, -0.05590505136743676, 0.028193972423220526, -0.06834498119159729, -0.2295877705895653, -0.07381892988470393, 0.08220685019540744, 0.04491310687561026, -0.13891541733752813, 0.010159139704674088, 0.11581983146026516, 0.16556913373458187, 0.13333173461005196, 0.041997289311013535, 0.08512213198834793, 0.018839595473142665, 0.14814982159562795, 0.056137762021663117, -0.22436608564208785, -0.06068168955001942, 0.05934548404334643, 0.03079924871963536, 0.08771361392959066, 0.05670691300839722, 0.15557454713311727, 0.17609002067083993, -0.006397397009601838, 0.13243914686736843, -0.02870675184638795, 0.19449976349505144, -0.09598794782066836, 0.16475895793708323, 0.04085895697723325, -0.06782502277919232, 0.15231337933925113, 0.08271441453090035, 0.23404871808197314, 0.09566525595159658, 0.03445463642742898, -0.023390141846972072, 0.040756584270945244, -0.16595163950913197, 0.1512172749124546, -0.1272327893374169, 0.15299280426216824], [0.10052179532739118, -0.03133953211410565, 0.04741351295547348, -0.09042838608429016, 0.05321377643247969, 0.17276096260639964, -0.1147156235244082, 0.03908309177306426, 0.09783615356180718, 0.08753075432000426, 0.04383137620680581, 0.05125498980506734, 0.1240911231698978, -0.25967620116976314, -0.038470600786037666, 0.10073740615170736, -0.04933330593901194, 0.3100882363086681, 0.06861939788331854, -0.03471526694711873, 0.06773235929946099, 0.21010295571527599, 0.04918708094395573, -0.14647909335374512, -0.18350342012234497, 0.06448727849683726, 0.05735402147082079, -0.043948525709970016, -0.2027297853312078, -0.13534622508411823, 0.18975356851365593, -0.12694297524879733, 0.031266006262991405, 0.07067392684748204, -0.039487949817469704, -0.18898989572130692, -0.07839483990773088, 0.01889846752748204, 0.013004656564412364, 0.06369404348188484, -0.03477753255913039, 0.1946131933115813, 0.21062179199157263, 0.12418767133319422, 0.04719891117238251, -0.11574460156927159, 0.14476955467755512, 0.13128776769547598, 0.03317340016828199, 0.18130947330052585], [0.0152163648146522, -0.010031354680315997, 0.12115597896629862, -0.005524356171907614, 0.13453625149043996, 0.08152664937418438, -0.08770279171251086, 0.019378597577669014, -0.001952999474085346, 0.07574966722595891, 0.15758695559358413, 0.05177546486521174, -0.0012807294723274983, -0.003650982756789498, -0.06204412083674087, -0.026226107199554913, -0.07560983814831554, -0.04366547172642479, -0.13189933294007258, -0.014317758186509738, -0.15442571803234015, 0.01853219896721979, 0.10036778121198582, -0.01844688038480174, 0.09938579654254001, 0.031038933703152184, 0.0748579406491086, 0.19057562478346007, 0.1440514572504421, 0.04730108817370789, -0.0068840804695523995, -0.14161199497306484, 0.11008888551732951, 0.024051908136256385, 0.10317516280951211, -0.08664502287894311, 0.18247143394322624, 0.1596765896097459, -0.008073303015773994, 0.07100391800198419, 0.0382226857064844, -0.03204357474369766, -0.10460738927036849, -0.05492089206620864, 0.041103250224905734, 0.09526586698133108, -0.10037960067858949, 0.03431811598418894, -0.2166650562125466, 0.03611597358472792], [0.10545169002834973, 0.05586281455836781, 0.17242685578618572, 0.0704452273354099, 0.004699058404001151, 0.06033433000710724, -0.10890078563826229, 0.07081657830039866, -0.11951335719379526, -0.09003004889980029, -0.06324349544541277, -0.05281901780449548, -0.08520824231356784, -0.07836453491872418, 0.06367824529661735, -0.1344680662071018, 0.06867859492597381, 0.09138262016400125, -0.008182921535516478, 0.15796882306428206, -0.25174530920898397, -0.0793286140445177, 0.0010577958617595904, -0.18658264532634014, 0.020144889325109158, -0.10473661721224815, 0.02052313770527791, 0.1272247961046404, 0.028364933172688074, -0.0733455707066824, 0.17989076723757547, -0.19429436794255892, 0.3013398875914333, -0.07624073868009552, 0.13259492516421545, -0.28271257856899695, 0.2507577060523555, 0.25725528579340157, -0.07872637775412228, -0.08259261080007664, 0.274749942100947, 0.14407014608797267, 0.04659647004322689, -0.15794205104457543, 0.06656058987886587, 0.18860882761725725, 0.007633338582381138, 0.14126051967939338, -0.2202921025583388, 0.08566763952560895], [0.06890921427366836, 0.08816312234076182, 0.08162217555049454, 0.13273771811193455, 0.06613013910661403, 0.03753212822820983, -0.1158185602042468, -0.10154991302697862, -0.1534454770961627, -0.12373593350819923, -0.05809605610185702, 0.10425182331622794, 0.058094738889953625, -0.10549739582842406, -0.08801203050818836, -0.21675468294187308, 0.21344916961121216, -0.15278393348940897, 0.1328631860170537, 0.16998579090842691, -0.07396138268401697, 0.17873625481686867, -0.2227156640150266, -0.059129388751395145, -0.002170262571393953, -0.11699027937700396, 0.020629229536801963, 0.0440105744741144, 0.22300099067009632, 0.17191257994477002, -0.12941655784697323, -0.029101223544458203, 0.07518825749644137, 0.007554192537886447, 0.020446390156805928, -0.05973118173007992, 0.08290909793668211, 0.11839734955229624, 0.2745683488642324, 0.14364796387685885, 0.18984291355913802, 0.22454348723077877, -0.20509768238419582, 0.11369831890968274, 0.14984662793111214, 0.1970964232933248, -0.12898899934791175, 0.136728023142391, -0.08936374424017977, -0.07643525940817944], [0.039155831811409046, 0.21053309506409956, -0.05363079747273671, -0.020262688428402495, -0.12523394493557716, 0.03299130663091408, 0.010897490154437282, 0.04090964073366709, -0.057098975208167056, 0.11685946095114906, -0.05008629647426138, 0.17066684514308256, 0.1127090338248072, -0.1240106396368624, -0.12299988812561582, -0.10334642796203189, -0.07762306188092273, 0.13985746648313263, -0.23408104084151554, 0.010220782834003841, 0.02986673935232182, 0.09444961075746194, -0.05224033846002797, -0.04181882728757482, 0.042597986641642015, -0.00894775982795203, 0.12655176046043656, 0.052709606242319955, -0.014312155686818187, 0.0007207732831679449, 0.1462536824608765, 0.15129587682394843, -0.025025785645035697, -0.037623899799401006, 0.0767104852206942, 0.10061545267606578, 0.1119527606282484, 0.0672272669786807, -0.28644563354691155, 0.06473814854302144, -0.004880557683017014, 0.0908547316854557, 0.09745526912867136, -0.08347631618355197, 0.09683057931355869, 0.10787193328462258, 0.3022283657169879, 0.06386606950880473, -0.2767306503877682, 0.050237339101012204], [0.0600384224698683, 0.21980380033780827, 0.18040882063038635, 0.11333788433035882, -0.12822912498846561, -0.021603168748187865, -0.1757877738371452, -0.04180990521331192, 0.10623450159638585, -0.05065787927720139, 0.1293355260079003, 0.007009461348001683, 0.005195182223668118, 0.05995800959700239, 0.10995163995711725, 0.14056011605121427, 0.013117531481661006, 0.17122068353671122, -0.10420607450766686, 0.0415678754033525, 0.0045873255580861855, 0.12014835293319537, -0.04019021825321656, -0.05533613094970113, -0.029665196563176843, 0.03523625996672021, 0.07991101589003774, 0.02093205700398358, 0.17249798911164974, 0.011524088785333637, 0.025998110959129243, 0.13949884230775172, 0.14892443855169438, -0.08395265782465582, 0.13061165942479416, -0.15712313829498056, 0.18007459324877725, 0.1936514943997822, 0.11317802702032338, 0.17430769256992665, 0.0022857623662110725, 0.1387314542796003, 0.2522230038727267, 0.01925970852494189, 0.044298312614596866, 0.05764286837764914, 0.07799443104664208, -0.03254357781693457, -0.05086745985222815, 0.0790874177514563], [-0.18657872697867, 0.07376046461375822, -0.022996331495579485, -0.27350018529432707, 0.13310990829397326, -0.2298960599703877, 0.07645878289329928, -0.08980571098677408, 0.3553862068343568, -0.19727094179089041, 0.014500375427807768, -0.34670170322491917, 0.1625809059275976, 0.3513526113291649, -0.10548450010198301, 0.3227235073716898, -0.05111001294996148, -0.058410057298231996, -0.04198288503267628, 0.35826856830497306, -0.05610180132560107, -0.11044303191168034, 0.07251740900450705, 0.03894620986717624, -0.26795554783996406, 0.3650979067673917, -0.19422628031847472, -0.14660633299195402, 0.13738506851643986, 0.20082671981393474, 0.12140555413605121, -0.04244150228551984, 0.09617227018217132, 0.2963217875746448, -0.001121803087944743, 0.2013043701660199, 0.08450208859462437, -0.04473892236381917, 0.010371328502209828, 0.03907638778696186, 0.25993878125758174, 0.04573024734671157, 0.04087232769169577, -0.1656048354772244, 0.2794235714824037, -0.07520718427452114, -0.3488722136205774, -0.0843208541325086, 0.15209818615869358, -0.10318903727382722], [-0.03927362134901877, 0.2741031635487796, 0.031025002633565956, -0.0033360927465034243, -0.06700130270742444, -0.05956356526794125, 0.022945961580903014, 0.07784490950848837, 0.06308570444446357, 0.17002812200545428, 0.14233500713163488, -0.09804040886487626, -0.03188608078919983, 0.19983979439854724, 0.020101309399820484, 0.2295025766488712, -0.11606840101809088, -0.04624096228595297, -0.20054599667352713, -0.051413447152033435, 0.007267861138111226, 0.05523348067997103, 0.06956816606626459, 0.09378353701599847, 0.05094013492137887, 0.13961526602293914, 0.11939437059834351, 0.061766674439134694, -0.16107815313922633, -0.002657490761953014, 0.2622040031773516, 0.1144069109168227, 0.07891981122042059, 0.03676894332022969, 0.09908137641432602, 0.10783167941017813, 0.009033945262822326, 0.0381438343705607, -0.090105551702076, 0.3082853887951857, -0.04654559234514288, -0.10188202192902755, 0.30504377022389373, -0.08355281185338177, -0.03845647068211715, 0.14153379550303755, 0.24198229903548918, -0.1354389136157841, 0.03707337581150633, -0.14012718021793968], [-0.18695602271013856, 0.16774837431871228, 0.05775478449903417, -0.061068399817084, 0.014899857631474682, -0.20444758071567942, 0.03994760676843146, -0.05812161432271838, 0.25951149949613694, -0.1820962138880344, 0.17549508051645016, -0.25253027078260215, 0.22854718879452401, 0.2527833825891352, 0.01011061909658702, 0.20570086081196126, -0.0022453886454138917, 0.02694819403310802, 0.0324249324181561, 0.3888481488574266, -0.026359160014659013, 0.1200341840426912, -0.03486755242126112, -0.01642074255366411, -0.0865449309562115, 0.2541373030005031, -0.13017073505567545, -0.07075514078598985, 0.27729992069511117, 0.355627751808537, 0.014315589587088009, 0.17134035293569805, 0.174196733260077, 0.3027951861373627, 0.02719734872661525, 0.08278175946229818, 0.13222840555546803, 0.031345568768543185, 0.14429909659216633, 0.2389412613341843, 0.003072263368673976, 0.018425781687433803, 0.22093372873103337, -0.20291012251418034, 0.26011533292456995, -0.034907381695798566, -0.32678703557391353, -0.22700755225736752, 0.07824754218863544, -0.2440951594217399], [-0.12372784422925968, 0.058296303069910696, 0.12867266366019342, 0.12313462325885297, -0.06714795332383136, -0.0489712973703604, -0.018731904088841095, -0.10242702544746111, 0.1895868710906739, -0.0018779951697343528, 0.08896572137338903, -0.10521856222176967, -0.1337742580197126, 0.03148314027157453, 0.20473628081745315, 0.19771318003595142, -0.05259528627813044, 0.07532388365518035, 0.03319668794412533, 0.01870788456449266, 0.1280182128714795, 0.033042452277102084, 0.1176360164109155, -0.0470006775336961, 0.003323104256125829, 0.20161549123102007, -0.028008224220913657, -0.093272666750472, 0.035635027710900095, 0.02478431946045201, 0.16424326104307518, -0.10766673513182788, 0.20936776151112527, 0.06404333967240343, 0.005764810793729711, 0.02860609923684109, 0.1224813446313987, 0.10510095859663313, 0.0012486850016433708, 0.1263094957395467, 0.06271204066415913, 0.11758457504142093, 0.16439472850310988, -0.06659417477160542, 0.0030584054408897003, 0.10595636505955508, 0.04545205763531085, -0.007011221196800222, 0.020982068252809263, 0.0032605480634097564], [-0.037364560225339793, 0.2734468998461878, -0.10222065881146161, -0.1497186067286112, -0.08587096559296897, -0.13040092423837715, 0.036024935351011776, 0.036800143247176995, 0.0506898530331448, -0.05193907648515331, 0.1627012844713512, -0.14245583479998533, 0.2474046517873629, 0.12713086932333179, -0.019433509559786094, 0.17890680867101344, 0.13546768537248663, 0.02442805483549467, -0.15292137926433952, 0.22940095052672185, 0.046083306406896944, 0.06385301424918458, -0.09211427351087549, -0.12176442674916858, -0.14763433213430208, 0.31957047876758005, 0.03560789318418802, -0.0028786845421826467, -0.019878245005158897, 0.2810908631485584, 0.04386340771872975, 0.09154994062970258, -0.055230593869423604, 0.17388652672182947, 0.1074247501707858, 0.11883791491626292, 0.020004026137604814, -0.020160121708017203, -0.13885160558019724, 0.09706133670157528, -0.08155875092478566, -0.12907572979671286, 0.2950593991595425, 0.044024865822021565, -0.008209698803748663, 0.040488796659447684, 0.04583754005163861, -0.023559269860276604, -0.035300212701918306, -0.295129623892756], [-0.22985782073367644, 0.23239159550052368, -0.008108050959109117, 0.055128831424244386, -0.10277580458227387, -0.1780564985675888, 0.013608857659440206, -0.08035231265607552, 0.09337554876043119, -0.031144248084330736, 0.09058088523379143, -0.2196979168356627, 0.08324938629373121, 0.1915132117634804, 0.10074522086759123, 0.24344108386189064, 0.10516757880036058, 0.12821759720284132, 0.12076657786268467, 0.22595359858353337, 0.004925685482440104, -0.055608061471326804, -0.048020689944378976, -0.06321147782392185, -0.12125629338274525, 0.2940721423862036, -0.09494675930841649, -0.12013179701465207, 0.08319375025725831, 0.17348339803781465, 0.2172340700568722, 0.036677084388471275, 0.2160683845578348, 0.217004962336886, 0.0472327607550491, 0.10179038707555542, 0.14563463086275802, 0.08120197824428933, -0.13416463661079733, 0.051929205940648586, 0.026335991110574625, 0.05881141353205759, 0.21351779590260922, -0.17253070167890633, 0.06653534583677606, 0.06070475629091798, -0.08597006309179521, -0.16885596266603453, -0.06630037761455738, 0.10696188543498712], [-0.19462835077736818, 0.08666026559198253, 0.11569684169611555, 0.09381416285344109, -0.06959351925251711, -0.10594260909780921, -0.11386961074284642, -0.07698326418762072, 0.10101246524116678, -0.16929793766718804, 0.12489412049159747, 0.0018002089131166463, 0.10462669044166349, 0.11568139226214308, 0.04595503008779536, 0.2578434081863106, -0.07262031662559157, 0.1407657172807885, 0.010114206875383542, 0.07856517653062155, 0.07214044305279181, 0.13052307610247824, -0.0185014865746872, 0.07751752464626754, -0.16550415459851406, 0.17912098575522306, 0.023256253859060164, -0.018143974978655893, 0.2039048603989531, 0.14127991729593212, 0.0466522351966969, 0.05820046400842928, 0.07888501900766831, 0.05522950277210966, -0.03051922455176626, -0.025253416428186803, 0.14749799268925287, 0.07729196047983353, 0.031347098044985415, 0.016660972892984634, -0.05736553949686356, -0.010145421690240856, 0.2536016685500002, -0.02786476491931981, -0.013272463468570578, 0.1261653323025442, -0.0017296240272525608, -0.08727031689112504, -0.22371911150406795, -0.028118265647680007], [-0.011780913545944021, 0.12254467666102349, -0.05663802503726832, -0.1595226449823442, 0.011734451761119218, -0.08158510669391114, 0.22987691421222628, 0.21338642865660037, 0.2134659706349462, 0.09505232216483732, 0.08585575976254375, -0.08984092778389231, 0.09581858880277333, 0.2317254735322802, -0.18732012840501516, 0.20094958990614442, 0.03095384770069287, -0.1333731773481023, -0.13465594958447183, 0.15122259044363023, -0.07380337347708617, -0.06757120367713927, 0.06782185518773562, 0.0373538725155482, 0.042645547123911394, 0.26555128033058395, -0.16750300158300624, -0.06353970381066164, -0.07497677207908922, 0.08467550740913062, 0.25139495447268434, -0.058994039103380164, 0.022171401089067663, 0.1882962814391825, -0.035388095851317886, 0.23695553522574916, -0.015170153727029243, -0.025984678749691893, -0.11739432063595794, 0.10514727253556794, 0.103479788823366, -0.06508649592386999, 0.10579082806500531, -0.13946601663287533, 0.17721686019320995, 0.052626975581796125, 0.03683094508420481, -0.07507475110468884, 0.21464634818915224, 0.013954272106383624], [-0.24056630061005793, -0.008133767652372366, 0.20628755011150685, 0.17717795941393794, 0.14321299930803105, -0.2430275885503522, -0.060257632952083605, -0.10250551915223273, 0.19094038830837054, 0.02422854289658195, 0.2269216176668573, -0.3140921320144826, -0.03094456727054446, 0.2686482148417526, 0.25437108723527885, 0.35555339301339345, 0.08544842111670015, 0.14748756924866635, -0.030298982698693935, 0.13802695656107739, 0.08646244273080271, 0.009874600621635917, 0.11132024383463489, -0.048583970732579536, -0.26763799547304995, 0.4282957292697578, -0.11238989513544075, -0.24075378162789693, -0.08439501933523294, 0.17984624446092726, 0.20752268184633732, -0.15475156149275293, 0.07939313052536584, 0.24490989889876488, 0.06863300588279181, 0.023782201874146484, 0.07992695853621785, 0.05767083565089244, -0.06222367071453266, 0.052870644993130024, 0.005043667500747998, -0.14743909096877258, 0.26786258631517523, -0.13028256575020905, -0.036941920496239226, -0.05175979082074291, 0.0727653216487013, -0.09524931665125441, 0.11182448216246668, 0.19090483227902771], [-0.12181249083554457, 0.17225243947231392, 0.16816086635800484, -0.03141781020971667, -0.03680198554166558, -0.2733518494108474, -0.18278763273213733, -0.01559793039295743, 0.11020103807389872, -0.06945427565723143, -0.09518755113707363, -0.05812404574434291, -0.03116156040786045, 0.22332090889969047, -0.09425307750787516, 0.18445143619958523, 0.001108671532495303, -0.048425079909139336, 0.0734262824066636, 0.2658799494501366, -0.033854204164689365, -0.06635316155443684, -0.04954647234457655, 0.012722143033363303, -0.10128947424844442, 0.18106804779012897, -0.2340922843244809, 0.02911749833446652, 0.08470051014001959, 0.24550834908352742, 0.08050541885460108, 0.07025962367988234, 0.15934287728305557, 0.21883753013911328, -0.057102429795449404, 0.031060895437436387, 0.2545893538149893, 0.12065920529134232, 0.1666145135894514, 0.05145850671196705, 0.2005876124583512, 0.1609705951396835, 0.06500689276660089, -0.0701084908813908, 0.23178371021817556, 0.03189920980313868, 0.03326248652355147, -0.03610163426869191, 0.00774755603984936, 0.021502317900723964], [0.13000126712853458, 0.0665049753224291, 0.04402218133608926, -0.11781916541836547, -0.03821050641354823, 0.11612183915438483, 0.06133551922857715, 0.36738177271888356, 0.15104478757271547, 0.265049154671134, 0.11793759075364756, -0.14038272199684937, -0.043300367837422485, 0.1725136570693538, -0.15050768774862683, 0.16436856376627618, -0.09054999586516288, -0.019600303769595557, -0.03143564007899349, -0.017393605961669476, -0.06444899721649885, -0.12615199239743416, 0.17307241911882698, 0.12244536927712721, 0.1395019821207224, 0.12580183062179898, -0.048357200478323974, 0.05573175923572705, -0.21429604155225715, 0.024141152781666463, 0.05174568942612165, -0.05298744165284548, 0.057731187467650054, 0.10396429046356503, -0.0680782476411471, 0.08877450431069665, -0.018927093061605272, 0.042313290255044225, -0.049756334259677897, -0.11141211035473925, -0.011894202492981603, -0.14378066526878014, 0.16600000418543023, 0.06789994386112302, 0.025591763983350002, 0.040196238790336646, 0.1380913370453001, 0.10323238426770778, 0.219797839201795, 0.019642163991952198], [-0.01795715225871034, 0.1089115703387435, 0.05316485234638192, -0.07531029126415485, -0.10396422349802044, 0.0961223360096549, 0.14442256467311054, 0.06465006087597244, 0.2322646457415261, 0.14855389691926954, 0.023005240721447617, -0.30189847225571614, 0.038296123755738896, 0.23276869673722714, -0.08094339397954405, 0.09372538853092571, -0.033689328256290396, -0.003265839629331051, 0.029045060554203996, 0.11206339960070308, -0.03177788684930886, -0.0957184372213253, 0.13218900838097253, 0.03180969871109536, -0.06263278427406209, 0.22923704087725316, -0.01091341542610774, -0.06112398786794678, -0.09785056223062143, -0.08003896422921701, 0.11502202635819622, 0.08343345562706217, 0.01004953888498311, 0.05200370204079834, -0.2615939717750754, 0.10794324341091083, 0.0048900763666579585, 0.13915112813585295, -0.13302773157426098, 0.07871784339278347, 0.06408028961624262, -0.18994143691015197, 0.10839852556604918, -0.06755604391115282, -0.07290576171609829, -0.047939086679689186, 0.18214968515806604, 0.04163956161861722, -0.011374352720545813, -0.06689081691664679], [0.006579963757920654, 0.1891565851814473, 0.10708992187452507, -0.16172306341334683, -0.01596133166478034, -0.11942327903907284, -0.14283854015430908, 0.05396638449237289, 0.015998975661857612, -0.12633884853277538, 0.0402321417616713, -0.009417502429649208, -0.06490353235232667, 0.029130558587413508, -0.3460349943781379, 0.18581924533951477, 0.05634206594916131, -0.031902706657668194, -0.11966983165744145, 0.13613264556117766, -0.07431612281067024, 0.15267396580407555, -0.1271798074018879, 0.01827542989629413, -0.1020244830706512, 0.11996553562063197, 0.013480394186573841, -0.08396692970332847, 0.22230774877639237, 0.39871173233254115, -0.0659574221416527, 0.16437590318800233, 0.06357278796083889, 0.06821885985795044, 0.17913334921081714, 0.013703324607737022, -0.0068753688482445985, 0.04263797751425395, 0.008817568897285858, -0.0962429770701034, -0.06776662040950888, -0.010334313151943176, 0.24736951856806053, 0.19053642987543778, 0.1292879638959768, -0.03654400077396093, -0.05298816080734734, 0.14936523990338477, 0.03762606542514507, 0.005603445851799663], [-0.18868177707241426, 0.21819121164435554, -0.009283536092623295, 0.04368917870138456, -0.005949481128328704, 0.02332819193997845, 0.17509300975014272, 0.14081840149307323, 0.12239582187615587, 0.20179779979522855, 0.1383286858469978, -0.19471057503709133, 0.08319431423653367, 0.20854111112988788, 0.10650415481540938, 0.2807607950378941, -0.010995162370744611, 0.2505242348250893, -0.007870758718740092, -0.056952410121592495, 0.0010468554813162594, -0.05749853808289879, 0.23106289101065228, -0.13752301348651996, -0.16949143300974956, 0.2262192592150974, -0.08623361377605018, -0.1711877927902248, -0.2612050791837616, -0.10174545044327346, 0.29877272528785925, -0.05360957901776001, 0.2109059095577295, 0.011122975555732753, 0.16800178359057127, 0.07240782207166442, -0.104140061677799, -0.01792871360959727, -0.3762471384449701, 0.2861813514916435, -0.07993456376186617, -0.12396666724476996, 0.2505133752423664, -0.021405839479504175, -0.09788081435322779, 0.07387838541861964, 0.23060966128252633, -0.0822206526351129, 0.1042413490109763, 0.11595723702901796], [-0.21698875086030875, 0.15764838800579759, -0.10034680158788495, -0.10840022414916085, -0.07754360688965826, -0.10057458121865147, 0.025711788758367896, -0.05085552518441013, 0.11456903041862494, -0.0696315301406241, 0.006760814304091156, -0.2900838160217269, 0.16911437203270335, 0.18044127035753618, 0.06460478119710407, 0.1370367067028359, 0.08555300296691634, 0.09355202063935414, 0.029443774287029472, 0.33977228830217665, 0.030278733807351885, -0.10047651056137219, 0.023618575213956626, -0.02643844353846419, -0.23136504257179785, 0.26878203549752067, -0.2438388345850551, -0.06412823746429364, -0.048440739024052465, 0.2569773649187941, 0.2768181121449719, 0.047911080482419315, 0.11160964722180249, 0.33335686680289417, -0.10664263796614759, 0.28322571328977747, 0.06645033890345027, -0.041882804764173706, 0.03426471312268614, -0.08454621859086026, 0.12873127419498173, 0.01006696096516984, 0.2367186171235195, -0.2561142596898895, 0.07821848316515953, -0.013934375515607781, 0.10850222497844769, -6.040440395506612e-06, -0.07586872181810364, 0.25526320626906746], [-0.1789919833644953, -0.06597106234429093, -0.04121351995816974, -0.05153621521408389, -0.11945717420093716, 0.09578708995280667, -0.0017618855996953682, 0.3390800741988256, 0.15708804319955527, 0.09835254021764588, -0.05386487828037038, -0.15135821647309375, 0.07868881765088331, 0.04413663195288403, -0.12164290174332328, -0.027881799620208057, -0.1770219862481727, -0.06482380287365658, -0.3126738279363381, 0.049607484543035506, -0.2803609620171121, -0.1306685805267485, 0.18888842308250656, -0.04222042660903729, 0.028937126030164625, 0.04196009925306914, -0.06081050113421396, 0.20003635457601876, -0.13361823530853492, -0.01254329006302698, 0.14567305971919509, -0.06949067811654887, 0.1417649085737337, -0.029977237443327448, 0.013670537731673923, 0.1028012921287264, 0.07750434569905257, 0.18115052317698646, -0.24767770349779744, -0.11150391741666965, 0.060966304365095175, -0.299691407503609, 0.11062103845330111, -0.11187825761855169, 0.10988496576655661, -0.002049907313202732, 0.28365093143600756, 0.01426421505452344, 0.0031967877383039527, -0.16049707960694912], [-0.08353842617911879, -0.04050743151000065, 0.09956519761365715, -0.11943540659051997, 0.08492906662756539, 0.05983439213220308, 0.03167388668823031, 0.23069103742895697, 0.32424160412396663, 0.1036265062327763, 0.19491080113192336, -0.2528697343528439, -0.09562747103929933, 0.19254179812327094, 0.08565751552751588, 0.10820575790118007, -0.1634389366732099, 0.07506093791041203, -0.08798973128938327, 0.04810615009917589, -0.10089355331730239, -0.07566261385713453, 0.10642958501217131, 0.07245759530763765, -0.03126271943760462, 0.22368496355369757, -0.20396352655988423, -0.1464139389989861, -0.049487712302467256, -0.0603131035495215, -0.10767529896972303, -0.07119509564932067, -0.12037045098723688, 0.1672610745295041, 0.14227785722317798, 0.0278953521508369, -0.07975367623188763, 0.15126650088987603, -0.05690508679181329, -0.22903475512155277, -0.06532522670800389, -0.4564520205565788, 0.022282965587790842, -0.022707013928747865, -0.14197002557151814, -0.20244466364785327, -0.030664111478411003, -0.1090664812146531, 0.11697840060191701, -0.278255311263287], [-0.3083379774833088, 0.18093801861753778, -0.14415551138700877, 0.04499538570753374, -0.01959889329592265, -0.2754179069771253, 0.1166912886558416, 0.06094509126435904, 0.14772233931341072, -0.13391581807602623, 0.006480825084447822, -0.007420779410991716, 0.10488170521274438, 0.1952824477040063, -0.012593057167078705, -0.023451783892227573, -0.0235300183977022, -0.05074997774040656, -0.08208025746570037, 0.13232466093515732, 0.027009313841457525, -0.03411398039926913, -0.16502289458153477, 0.030424732840596908, -0.03996668503502431, 0.2398956975771726, -0.18281058065099276, 0.008833767043450605, -0.0010673347124135004, 0.000676416480156879, 0.0822446837693408, 0.06467264565195584, 0.1574332434087656, 0.22656633291878633, -0.12211965199061338, 0.13331192548372348, 0.008179574567125886, -0.07865936565162486, -0.23796396373020212, -0.05488460862503396, 0.025602457579731987, -0.2822681764543288, 0.13039246625519496, -0.15105510227366317, 1.186570920543887e-05, -0.08105009797283265, -0.03566935376712646, -0.06173319834786425, -0.03987789552680533, -0.10188220865321605], [-0.09648817596242912, 0.30370501318005066, -0.27058212259589376, -0.07136970981846265, -0.2011720117604991, -0.06258726444827635, 0.2280653754575412, -0.0826643008937179, -0.2028548134420912, 0.036185448564680624, -0.2526267888230421, 0.1933195262879952, 0.1998796338880945, 0.17218322683632106, -0.17761257538935576, -0.1340144328998883, 0.23141895160579937, -0.22655341980544969, -0.024938805924543724, 0.16312426525855217, 0.07614898690477706, -0.04235013355351602, -0.21396024936272276, 0.12239848332270624, 0.14745870951262185, -0.17455663564852839, -0.13472157628129758, 0.11601427530512212, 0.1774744154183389, 0.09230042390990395, 0.04998802684611416, 0.17215717563630456, 0.07105698592402716, 0.08976121068842642, -0.20805812155478887, 0.13023572855406268, 0.03838894520409238, -0.26267961503461, -0.1324893791983885, -0.290299096413308, 0.16782635382417418, -0.07712939682739875, -0.15059850153508883, -0.21914240665247287, 0.17385624269787842, 0.1105121458853086, 0.1729660289436187, 0.10476349117424602, -0.28868674501205116, 0.010859040937637484], [0.09071940194173346, -0.27425848120156365, 0.01979395494453516, 0.13588040975608456, 0.261705350697222, 0.19722632987126323, -0.12622265710538033, -0.23968187446025085, -0.14342276606074297, -0.19069322024310395, -0.02605262261478926, 0.0453189651896183, 0.015442552786236916, -0.32580443855844676, 0.23204011055922805, -0.06224603002119835, 0.2129225024595372, 0.23250737264752724, 0.1505858631959554, 0.040507912746013015, 0.19253603090950389, 0.16362235819447954, 0.12809906535765234, -0.058834104756470336, 0.004114786714881045, -0.21942493174170472, 0.12473800902197557, 0.028485959928120995, 0.1279239835004056, -0.06328954236796426, 0.1207353821901186, -0.12720924081061027, 0.03194074138411544, -0.04149646107963159, 0.21647286557931197, -0.21608389902795028, -0.01652998044229596, -0.06688217971728622, 0.17365377975955162, 0.0031509247094723193, 0.0012859704245286327, 0.274578919431963, -0.06163896609462412, 0.060530796400800245, -0.035212433964856314, 0.013068035785356839, -0.25565350568068046, 0.12786850269368794, -0.031899499123574294, 0.2648611093405688], [-0.005243404433436158, 0.022065055864490146, 0.07455709530170632, 0.013448101074369308, -0.0712861724386453, 0.09793356585322593, -0.1976765860197171, 0.09088399153145013, 0.06595312991926774, -0.09032534399221519, 0.0029781911631554404, -0.10564320343377183, -0.056019947168391024, -0.12353247421203326, -0.0479921382766736, -0.002254396746863516, -0.05415285282544624, 0.0557447304493374, -0.002727261978999816, 0.03690878492220534, -0.2174681054873348, 0.11647784821289528, -0.01119642078653073, -0.1494137049378735, 0.026738198364967602, 0.03470119594496468, 0.02861743937867538, 0.05044706755887612, 0.0057345714782680935, 0.10343002570073781, 0.08331605735059279, -0.19796887556964474, 0.061113453757370824, 0.024006682619202323, 0.07909482581357084, -0.1428498152506494, 0.044214628333978157, 0.21261257252867533, -0.04242728303705352, 0.1602749197356139, -0.03330298347456342, 0.14902829759135713, 0.177918326594556, 0.030515079840829455, 0.014160153002772468, 0.15207505511996464, 0.20126054531979545, 0.046697885046100326, -0.06353785975690122, 0.07871474485527573], [0.029810175460842338, -0.04829075126995955, 0.19776854230350419, 0.00015972082438802965, -0.06348881169198387, 0.05350435179338603, -0.07092935237385076, 0.06329246442608268, 0.051624942563462665, 0.12747021452532356, -0.00977206259273408, -0.25412556155345095, 0.024186026739821644, 0.008975295217537965, 0.026336808871690865, -0.0817209796744573, 0.0003843424117558131, -0.06998646319117274, -0.09857969877843498, 0.0034703409070343796, -0.0892072975350469, -0.21223638149091234, 0.010689965098438977, 0.04748433168316562, -0.018140956709538435, -0.011078215853117454, -0.12281397866353473, 0.17519506508876315, 0.12570173643354612, -0.10120268753530587, -0.005343219094640617, -0.1494337466595592, 0.027857622236954194, 0.06112138731332195, -0.1706299701333828, -0.016724731331375448, 0.1847890864598534, 0.19386621344602922, -0.0009006006591020542, 0.06121002455965344, 0.20906519367137205, 0.03003952263540734, -0.15165880753009672, -0.03580077552532619, 0.12393544898582828, -0.05805854404288535, 0.046402928533495216, 0.09050130696994878, -0.023434057759116805, 0.06177902223180462], [0.03888701262904879, 0.09950211985694819, 0.23739880049276454, -0.10665539560573453, -0.08219532557807255, -0.17057570919786844, -0.30041235271589356, 0.147298913676764, 0.05840065662734094, 0.01343586647623811, -0.09253679607724732, 0.00023202738965441184, 0.05830839467976558, -0.07533580752605812, -0.24824677744932244, -0.07621147262546486, 0.06580123178620849, -0.01843289130312001, -0.007543853074057669, 0.1915299640026789, -0.06876263826940313, -0.005701942627102269, -0.11953359431566926, -0.07087168289275259, -0.22116843243402462, 0.0254686665260032, -0.2131633930290138, -0.015353677030398033, 0.011482337259973694, 0.06773281593494476, -0.015094631550885331, -0.021917046522758894, 0.10470625532606889, 0.06070533682365766, -0.010129747459481126, -0.07311166647221133, 0.15134744573003264, 0.08922155269807737, 0.1856255980808016, 0.15833851269657376, 0.22094948035013318, 0.14803302262205303, -0.07428944393095681, 0.2143046044286859, 0.20113308432030308, -0.08592886158877708, -0.08949591033522147, 0.14548926080247684, -0.146367308606247, -0.03999063907516012], [0.062259510526453295, 0.05596388671640164, -0.08661454032289842, 0.09068132156006523, -0.007900647834181387, -0.051531356431368545, -0.16277766349944384, 0.0919781744150675, -0.13762663163875635, -0.09113951116349539, -0.0020010438922361856, 0.1759199340196029, -0.05078270810828396, -0.08689752058553186, -0.035848669179414004, -0.2022176862495767, 0.07576551983582525, 0.05577435221304953, -0.0327089616382828, 0.06408552385234174, -0.015210314066439188, -0.08782895132635354, 0.029341548929250685, -0.15080664090095516, 0.0004797745264731896, -0.12051327485375254, -0.008074309564553055, 0.20323860394398308, 0.04201053920465389, 0.1669343292620723, 0.12702977973233828, 0.02488078263548275, -0.03415292207750076, 0.07219299129828963, 0.21834442148585, -0.07458863255448663, 0.15313544256750772, 0.19790927167522773, -0.025301327838227045, -0.008743507637486372, 0.1414284697684037, 0.2445601315946523, 0.05778628758671471, 0.0497579931452114, 0.07392227655668, 0.1277609201730113, -0.028241532339724082, 0.2634491929386087, -0.23397535430731767, 0.16128310361156875], [0.16360843253317228, 0.07719188744910126, -0.021666541229105243, 0.06844441596053175, -0.002484712998090273, 0.09536712773854047, -0.020792952041922563, 0.11525232288044557, -0.13574743636103, -0.08467286430848786, -0.14682569225136402, 0.08314868947561738, 0.1181422980729508, -0.28970056360281515, 0.16393451243165236, 0.0038674895980208832, 0.195745319335838, 0.15636731704828052, 0.10353315321542138, 0.07658303485100557, -0.10699877659948996, -0.06998977038985246, 0.08949779564152587, -0.07937691165380903, -0.15392687540411984, -0.1366121574383908, -0.0796647642543625, 0.09372244173373426, -0.07413391491888867, -0.03345243757142385, 0.23541429390115878, -0.0614114280827718, 0.038233696901590175, 0.08489884525607075, 0.13758413075157055, -0.18740239239126052, 0.10055545128725912, -0.011750453807513873, -0.20429259408411754, -0.0786095374725516, 0.008408593784008583, 0.20815589404043394, 0.1291470766644257, -0.011970671533361153, -0.05751923719448146, 0.0011754306418312454, -0.04650806110826344, 0.1681502284314798, -0.043764067329872855, -0.0042689739409683255], [0.06532764952057639, -0.04371956637852387, 0.04543895203259132, 0.04384276742511229, -0.03125118848932254, 0.03833678191602659, -0.01586569749925184, 0.03669437864713955, 0.008761431411555557, 0.014687736230561133, -0.014531455473834803, -0.023154141814792775, 0.12984759168141152, 0.04670095736892711, -0.01671013180942316, 0.10147009960239974, 0.0856417636970638, 0.2120185972275786, 0.045974426221307194, 0.04472620220771215, -0.07412060487540774, -0.08249530274400965, 0.10509697168376614, -0.11284960417579018, -0.09347277349516263, 0.10071327898183959, -0.11561901013632858, 0.019104450548661035, -0.05926884073090051, -0.05350075780631092, 0.24422493220137007, -0.22474005284970724, 0.07703241196162468, 0.053953290583647964, -0.023265234749919827, 0.004875203488972746, 0.13732532663824137, 0.026844954420587396, -0.007911750058083481, 0.028793579186323633, 0.2464048379272959, 0.3021785795669644, -0.002854655994734823, -0.028154498914256598, 0.1239584999096285, -0.05366205513826984, -0.0590008670597831, 0.13097476176172312, 0.01243051953358197, 0.16289688458327534], [0.1451283150835232, -0.30738641331341304, 0.23834790875111492, 0.018158624363058207, 0.059254248049121716, -0.07059693271564912, -0.1617625422521253, 0.21527149764558506, 0.07725222106719581, 0.08755531458877201, -0.002166386179732926, -0.14203109207129158, -0.07132431693977376, -0.046992889571460784, 0.1509116576354777, -0.016841014910644207, -0.033150279498465024, 0.062444166351845354, 0.022583630404460635, 0.035965237258030504, -0.046904799955623695, 0.047296539960479014, 0.12918975295815877, -0.015440325701560113, -0.1754733777097762, 0.05001440237595712, -0.09700777197989754, -0.05192226211642115, -0.00039593033013538714, -0.16894623286690524, -0.027357062796181296, -0.041313671172222, 0.09265626123122128, 0.07017928325097779, -0.021086302060361908, -0.07636208272182375, 0.022303165311869766, 0.040173189573593775, 0.1458940513931851, -0.05897749762907933, 0.1864310261081091, -0.028904354141235537, -0.2084157415428312, 0.11686155314004361, 0.09926850749225041, -0.118078729357242, -0.11876873443574897, 0.039430072261820465, 0.1351776898957787, -0.0030002307788416656], [0.11277233294046492, 0.060555073703626006, 0.20031705789738344, -0.16448537389722143, 0.026253289012687267, -0.052012670018877945, 0.04411987292764462, 0.16112962910048678, 0.15671710390230148, 0.06969862913073568, 0.20016797904803216, 0.04948188919848414, -0.0811759910137962, -0.010760449745743703, 0.022687578927071603, 0.2442734114488231, -0.09605928523371565, 0.1346990475465349, -0.09677906827986833, -0.053244276423442906, 0.19883571146568643, 0.11916902371207826, 0.0656429616532577, 0.27318994400522084, 0.16364749835295456, 0.07409786111014721, 0.0028259944085256192, -0.055213813888569656, 0.10433716471238165, -0.09566185921921454, -0.019709697605991443, 0.17279117179253212, 0.012415175624923525, 0.08000551334417402, -0.0717408771555946, 0.03019639659680471, -0.14414782864475284, -0.06297925156589179, 0.12881023463453428, -0.02632271997647546, -0.18566683105257095, -0.14569417125339315, 0.14243778659754464, 0.32005489345557325, 0.051132969605500546, -0.08296481327880366, -0.009573194513546832, -0.043045273142329574, 0.2630738326881844, -0.27669920731318226], [-0.13728401763022963, 0.09545049387558496, 0.0002158740137548346, -0.00763179478803799, 0.007271835905894176, -0.07802394022780286, -0.010196992625708608, 0.015998804316768665, 0.07280654642451057, -0.11351424543702235, 0.13956030031841382, -0.08389679283019458, 0.17308349488048302, 0.061517595807545476, 0.11500921739511161, 0.2135816638723002, 0.0017645155750235615, 0.14894523405477564, -0.015131705297197536, 0.24376116310772628, -0.028492355696691, 0.04327250708537997, -0.03949926019934554, 0.021851509382066293, -0.12028784537201413, 0.26741412732127934, -0.021605277438066072, -0.12250907951498466, 0.08494462848775455, 0.20450223333301737, 0.07727178088394668, 0.012614834639350146, 0.12007376632658036, 0.17805192450450286, 0.08352697413307848, 0.028755911462522796, 0.141526187480755, -0.043049612665042085, 0.06305111977059438, 0.07257933081078644, 0.07281628945639085, 0.03951890491810156, 0.13153416321803196, 0.026499187290787055, 0.015412360973415775, -0.044726095010059384, -0.16212611333341512, 0.05615063076450087, 0.03143551458649224, -0.2507061274426476], [-0.12868060510674567, 0.0899045437655229, 0.22204291830799636, -0.0026401316815245486, -0.0362115389396159, -0.062658810401681, -0.19452079127073235, 0.047674557150410087, 0.28531683852101286, -0.05980337036043401, 0.18575584599384892, -0.2809155980681572, -0.0732322316438375, 0.11415200028218976, 0.027782291814153877, 0.24579644614931412, -0.22886676455063285, 0.2003405135363821, -0.12457359827293119, 0.2095786804661882, 0.1444017267122974, 0.18107789366737387, 0.1596768636271214, 0.0854655125767976, -0.21205483200787745, 0.203644332219646, 0.08341528343171577, -0.04944075946774616, 0.05876319927370771, -0.08686864159765613, 0.016923044606961098, 0.014872082954510889, -0.0027483230011628966, 0.09573854504987782, 0.042656122762504696, -0.05186921345141297, 0.04223090425950059, 0.004703323287214451, -0.007997193043877146, 0.0473299856747444, 0.017141193369870005, -0.12163872711394068, 0.2917494787907825, 0.0970683716007952, 0.15018813679833207, -0.06805484775585673, -0.045484323173680355, -0.18614715246947, 0.07144088389871166, -0.13465084076735276], [-0.17395192039090582, 0.07603447792830019, 0.0005758043235799924, -0.019317147135716275, 0.06972649221148285, -0.008305808064066101, 0.09454642450232922, 0.15361254590681722, 0.12847909473102304, 0.02108303588945239, 0.05191761456813605, -0.22238476472377083, 0.10561027068711662, 0.21183692148387234, 0.13842930717561433, 0.16834042441267236, 0.14313272422614512, 0.0561385168482001, 0.10578933247083078, 0.09329941152964015, 0.09150641577666696, 0.02435788047847736, 0.17392958786633528, 0.057629988235437836, -0.0035478691935769318, 0.22735654367928557, -0.05519337231960684, -0.010988157696930675, -0.04350713871929428, 0.06134197439440443, 0.005124483098747368, 0.07298645115454469, 0.08872620832017995, 0.23183399228733323, -0.10989102690565983, 0.15255069258609275, 0.10603674945931875, 0.010503685588529092, -0.061351540693132534, 0.0493855354263969, 0.10602213032310433, -0.1892031475504771, 0.10559056036690585, -0.12818795535575964, 0.1410913944876083, -0.00625248346751112, -0.14155725118883883, -0.0950391968266217, 0.12971723590357928, -0.21379769493789333], [0.015094111180031634, 0.007276068768609517, 0.2236738718036305, -0.09765338704430927, -0.07148544010523956, -0.20617039911346527, -0.10970589569750207, -0.004292192150123733, 0.2279872171767495, -0.2009394036069171, 0.021361246740961952, -0.31341099490254687, 0.1135320790197246, 0.12719352957917338, -0.014970351736824216, 0.13957645762694515, 0.08147494493113216, -0.029693115029786932, -0.0064794560117723745, 0.3674118835798875, -0.020190673680579075, 0.07992048153145873, -0.016497174152222953, 0.08967309478330114, -0.09025939994971012, 0.15057990639014082, -0.22651457394005753, -0.08869844608827968, 0.16907183293610736, 0.23681886332514845, -0.15281993577966588, 0.027293348581158103, 0.08795410193130765, 0.18247097129384204, -0.08095658510026213, -0.016620370897790896, 0.15712957387473028, 0.04638327530290271, 0.265811194746163, -0.1681619700118709, 0.12535917008545489, 0.14531529778908545, -0.17587475492867097, 0.034187438734880685, 0.1878754332207428, -0.18579739954621813, -0.22860926504765688, 0.057556860344098106, 0.22826935454432032, 0.028754284290188437], [-0.02622443529550679, 0.03905887866590017, 0.12264469259428633, -0.03232835539182614, -0.07706013762441029, -0.10637561542280337, -0.03558371872554071, -0.1696657016192796, 0.12253701146739819, -0.15383323179653524, 0.07122939156099167, -0.19763250714125538, 0.12843516246621467, 0.11120867014467495, -0.01153083569220098, 0.15748459444411236, 0.027559062383461203, 0.13194786732924993, 0.17866836459152197, 0.339323459803212, 0.013546853292276936, 0.08517360147421682, -0.01205159112832393, 0.05987867291539439, -0.20869915704706798, 0.11546555216708525, -0.12149228394968892, -0.06869930194295, 0.23796269890325672, 0.01392679953087663, -0.09450590871369229, -0.06311266558863043, -0.07488896002315315, 0.222503550134305, -0.027790353245467227, 0.017182755559509537, 0.21178668958466673, 0.03822669347381861, 0.20445965116288406, -0.07364450444107086, 0.25228556964133786, 0.07223983370119372, 0.05845584549880489, -0.16038600797651092, 0.19348505621667741, -0.09739641064774444, -0.35484331014359366, 0.05638776256385881, -0.14811742773702583, -0.03832736982327925], [-0.09791590503505125, -0.23855423988689123, 0.21099363267323817, -0.0019770917526131747, 0.025706051411010747, -0.030970575252030026, -0.20398133835782747, 0.023754936571051686, 0.15403002760593468, 0.04103789635124704, 0.1063156555530721, -0.28286292912245553, -0.004105133474001965, 0.06808804503715067, 0.08928515518679346, 0.1857149491148197, 0.036596788658071394, 0.10333723265240082, 0.07285438224970105, 0.07831551923567011, -0.006309901038805745, -0.06288781080865981, 0.20786141053860632, 0.0791070192577316, -0.10194316207816376, 0.16459036457914064, -0.1349760252112321, 0.029683666648635375, -0.14955097127793113, 0.1655553828423882, 0.04811721694328305, -0.14661891909538888, 0.1562791523622385, 0.16073202376533915, 0.06971441588997301, -0.026808565551925276, 0.012806831754626203, 0.15298260585245588, 0.12255640294025825, 0.206161463648596, 0.04397251744613245, 0.04337263203989232, 0.1101202151385011, -0.041450213428302296, 0.16274301975173927, -0.07482708315430361, 0.004662590490859374, -0.04872588823792876, 0.1946699578375672, -0.3028284194085845], [-0.10269914129825763, 0.012430898421408076, 0.008089381263164988, -0.16913624099995722, 0.07011489774474994, 0.08770697017464126, 0.32027570963458024, 0.06834789486997683, 0.047270909684880326, 0.03540520801401187, 0.04694124784030784, -0.10782280950749216, 0.13771990988203203, 0.059547357611757654, -0.021390039727135435, -0.015073277646751279, -0.039736772275826, -0.006925910060847765, 0.03221202876178501, -0.07739562263602658, 0.17879211305838894, 0.029337843156331006, 0.14529260866576413, 0.041000658949754104, 0.09403801064680904, 0.05253207040082477, 0.13424085951151607, 0.006676823560493024, -0.06778486140255693, -0.08051460294343239, 0.012833353103036687, 0.10096016293028882, -0.017467921862767688, 0.14530934963652778, 0.006809214406714801, 0.17069138363949615, -0.0821385348486277, 0.011081206563430689, -0.14779513313061438, -0.09406083498361154, -0.1363241134358956, -0.03134162294712428, 0.15434058232555606, 0.013431527204042473, 0.04649625175574572, -0.06603769493877776, 0.2275993557484608, 0.025772663621020882, -0.021819682348173455, -0.09671705677295174], [0.0980671300774411, -0.04643883681102494, -0.0979146905131669, -0.13209883624034371, 0.15357729554329375, 0.09932272366316112, 0.21931434832118563, 0.04675345324777698, 0.08613877039473623, 0.06495969372479858, 0.018096160286938064, 0.04531938433997664, 0.04175544567185604, 0.17019022163284706, -0.06593269341248298, -0.005812721258481105, -0.015305263593769531, -0.029700715878427757, 0.015379168329767521, 0.07142434508917199, 0.11074493519604328, 0.040181718720370324, -0.06863139345314206, 0.11448798099667958, 0.12093959113927259, 0.12532383397853775, 0.1620519089066236, -0.019130209336629678, 0.08241081767528226, -0.08506234858141618, -0.09307340515814302, 0.08674027925000001, 0.004126061999176049, 0.16049121026334484, -0.01996150590215965, 0.23917747096779957, -0.1272772959001614, -0.09763380434048961, 0.14403719551241284, -0.11823307323957186, -0.11321044075588306, -0.11285445721401069, -0.04809161782195939, -0.021609700268788494, -0.03922589178569759, -0.06048589565668776, -0.055987173442943884, 0.15428279656364774, 0.025708716470187097, 0.016177927924943436], [0.028049195803230734, 0.1078936488803338, 0.011855293620051105, -0.23571333855464358, 0.04375445040758764, -0.028454514099514213, 0.2731486143184862, 0.1634865714064935, 0.2831786870553039, 0.1037763930327705, 0.09123175050347225, -0.12324009987852641, 0.09320420653432898, 0.2554713072307641, -0.04090916969147044, 0.1540810169434985, 0.012729347319629391, -0.029718965702336925, 0.093996371119153, -0.0444111864033309, 0.1294772546308565, 0.07428929439843947, -0.047289570426798266, 0.2649520584835455, 0.01523925618676026, 0.21304492566628008, 0.2172269995976248, -0.15034637761028657, -0.005102852475040109, -0.131605718639054, -0.043967917047427335, 0.1349976273752832, -0.09656141380996364, 0.223741666796793, -0.230805307059351, 0.3024560582138199, -0.2072080518458242, -0.05651969200802777, 0.10341470398238796, 0.3603388503036225, -0.10064658586351362, -0.1056015194591863, -0.04992478584625472, 0.12334430330417948, -0.10150560305317627, -0.13994763908913643, 0.12529387872421616, -0.06625190761401063, 0.26503076619451515, -0.11652790618907144], [-0.10055849306103848, 0.07694571130787461, -0.13248464274182972, -0.15962740958119506, 0.08362493658347132, 0.10539492617402244, 0.2007142200037287, 0.01568376818817703, 0.14388997620265004, -0.02549085246086667, 0.09539664120651203, -0.09000886372528447, 0.1376148878929816, 0.20495530119130873, -0.4207120430262056, 0.13453451593754437, 0.14776648876840515, -0.10848057021597549, 0.08440557200679508, 0.2589696301777355, -0.044076268281520475, 0.08164038038026629, 0.06140844286959458, 0.013542498746607156, 0.05218646320648228, 0.12185303723593924, -0.02856931307606352, -0.0239715204019396, 0.13850834024849265, 0.22223640250253582, 0.10995560854642077, -0.02657912634578302, 0.056564892163191806, 0.21972019626189326, 0.1037874142261017, 0.24498950774472217, -0.09305152431479834, -0.07309661372772028, -0.11181126763046124, 0.2564548908194619, 0.14165990847315713, -0.0679850840033432, 0.054516334771844956, -0.1985748384120577, -0.007375306116900522, -0.02332687070204072, -0.25523002425373575, 0.10376758342684317, 0.04711356879908339, 0.22652445018540082], [-0.02138845526015537, 0.07855037709153818, -0.15981423700955297, 0.17180607973666673, 0.1951565251291744, 0.11420210506827276, 0.12885998199339985, -0.040894132532783574, -0.04764156204253892, 0.14864734074738184, 0.04518868919186322, 0.032435767611958474, 0.21347526141160383, 0.005759293007480801, 0.11388539376564365, -0.0670340611913095, 0.26533123224229554, -0.012892770078914328, 0.1356207197636996, -0.0634252655669927, 0.03841026599407318, 0.11497360577893216, 0.08641625948685613, -0.10957027285900652, 0.20844075702235362, 0.07333999355379264, 0.03987863156243262, 0.029899912406691893, 0.060514899807076264, 0.09107802014202528, 0.17534770345252462, 0.11293194297776432, 0.08316237104419556, 0.008668877420603628, 0.11889925327977621, 0.02000430304293996, 0.09552681526510742, 0.06518650754379347, -0.13090404257222435, 0.3560277579244404, 0.08025553971422751, -0.016717502810897903, 0.13440106556646378, -0.09206422265355148, -0.05679545278446978, 0.07548054303364383, -0.049202698712413305, 0.054911367187851445, -0.05915695483888969, 0.24213078811009914], [-0.012896606643399972, 0.15827392628629264, 0.06892384299286018, 0.06827766953214946, 0.1938077701892055, 0.12420225508557256, 0.11973164841954048, -0.034023394409084695, 0.07181186589857153, 0.1458789504965024, 0.05805391941584012, -0.04037506632889953, 0.0647618515684786, 0.11637209527108025, 0.216670531535153, 0.041172961017471706, 0.17265721318377464, 0.12393447407964428, 0.042681158433779294, -0.09686997588324972, 0.23315148784473905, 0.0516083674719493, 0.07742733934596528, 0.10934875358409406, 0.05594054182581548, 0.05988830965313199, 0.2359779527606372, -0.13347260325560895, -0.00417737110904978, -0.08905250423737773, 0.1020901150834263, 0.09634989079561673, 0.08422966478620043, 0.03862759523613132, 0.013865929587253165, 0.13628560365582962, -0.1488935589934619, -0.05271881844091125, -0.008052423959651375, 0.23823505255372865, -0.12434504341991978, -0.1855369762873992, 0.17387256400886772, 0.026120300876945377, -0.17859187962158302, 0.016020610725515326, 0.18211709299901202, -0.002497419921333561, 0.039950861869574424, 0.057113458926428926], [-0.223351706244227, -0.01705676144802576, 0.1805535735499789, 0.06712763409356441, 0.04208592034921373, -0.15758874984655424, -0.13591105980988166, -0.03887766871672006, 0.0467941480843524, -0.11804114107422425, 0.03918112732791976, -0.17134702988927336, 0.12789697989796134, 0.11831880447686054, 0.08440635052785302, 0.2795533840620776, 0.08254848816182433, 0.1270095689705231, 0.0922856859604281, 0.24525610433917275, 0.023293130929018455, -0.04335988985401225, -0.00982710628230322, -0.1577679671857039, -0.2273849308975854, 0.3234955335003301, -0.1875680432184009, 0.009548794266585456, -0.03488924387436621, 0.30634578882440433, 0.09609982820549468, -0.1501231282586437, 0.053030893640674544, 0.20964069899681917, 0.11688490157347381, -0.016780734872490544, 0.2464488662709993, 0.07888173425556867, 0.14964170944418878, 0.22133572789933575, 0.10669711634678575, 0.036359666065117195, 0.16685964632746825, -0.07849894579302584, 0.04220975302723549, 0.04535350990394296, 0.0075201510776227755, -0.03506623069129091, 0.15735274608456204, 0.2273974878842182], [-0.07180259214700245, -0.026533309287233756, -0.0030706378893136156, -0.20154860717970935, -0.03576900802315951, 0.03796942446950604, 0.13365037467166468, 0.2753139734667874, 0.24844984720938593, 0.2574731704961428, 0.2248877875251564, -0.17584409759570865, -0.01299066729182821, 0.20639752114890375, -0.21830727425803512, 0.17253192960503144, -0.05296652989374488, -0.19173614450786033, -0.12465328811667754, 0.10912112646454905, 0.00901997864678718, 0.10419184320236088, 0.15808961936710286, 0.1955385901882256, 0.023556339434596407, 0.0979820053855168, 5.283173365588275e-06, -0.06198620745737125, 0.05497290308030733, 0.02471324368948689, 0.06617934204783417, 0.2339323571742454, -0.08796192778180942, 0.1927205501398472, -0.026355776225357525, 0.25074459083708334, 0.04878644863741906, 0.1335111308227602, 0.022172555745934384, 0.19674252942753467, -0.059182143126008585, -0.10913958382681838, 0.0189950614750648, 0.06818719618746923, -0.0019273503693188318, -0.07453749274442367, 0.08415135016575583, -0.07826630730981746, 0.09387644373552353, -0.17565506473152898], [0.13823621958761548, 0.279134853185939, 0.039829115203634594, -0.14481996862299543, -0.10207923159915804, 0.039904131710318556, 0.18563155063508996, 0.18257615327404006, 0.13182610467669606, 0.06211652370710839, 0.13829175465478066, 0.09846548424731494, -0.11440228529636877, 0.1875779789846134, -0.3896553791652779, 0.06256294282962814, 0.002326443415352189, -0.10391897047089413, -0.23442644528448567, 0.032710729935506465, 0.05389506601431443, 0.22059814522832707, 0.09025801176532092, 0.18437532049814317, 0.20699763022618736, 0.014349306651400037, 0.13655297488324963, 0.10756529123888756, 0.10881828889924755, 0.007717372397341748, 0.019981574635692213, 0.1436007968611413, 0.04229545271905244, -0.00710785418137071, 0.05008601604594582, 0.16947207385884117, -0.07716872998779595, 0.06246171941531061, -0.13682063820836815, -0.12385189018191996, -0.01926633647572129, -0.18300817640865755, 0.17184120080506737, 0.18415451948044428, 0.021655367248031125, 0.018166201304910767, 0.3151020257106437, 0.02109293156269128, 0.14047233966942538, -0.12148415095190568], [-0.13578957297090571, 0.18129308627998109, -0.17288043452023044, 0.003747254668572085, 0.0031932622498969058, -0.019345564353376293, 0.10880616179350092, 0.06923158889229802, -0.047947225887142626, 0.037483517135082786, -0.18820196047312726, 0.03585884202105838, 0.0425605781846862, 0.13127491482582146, -0.07039624455919423, -0.08315618465757925, 0.09648580233762137, -0.112876532109708, -0.07608608819033917, 0.11629883767736798, 0.0524616536812848, 0.0003585743466123878, -0.11637890112401837, 0.09929963486009263, 0.214622479491663, -0.05070771261294406, 0.01343398878779967, 0.103353826122871, 0.1710980635964061, 0.035660651990541456, -0.04597892590528516, 0.0827565920717523, 0.07706656696976623, -0.021798517991922162, 0.018119852363020324, 0.08736055682134071, -0.043737988602902206, -0.08041637502774404, -0.1669481588105449, -0.043197111400780155, 0.1043933735182194, -0.11917266266370344, -0.07730766882676056, -0.09220421284724666, 0.07836449829364857, 0.07883176248851165, -0.029809432281431993, 0.14758930334264014, -0.134171752662979, 0.04407132512999044], [-0.05779284830948318, -0.02218466064413629, -0.20385653507739043, -0.134214205545762, -0.0861907175161037, -0.005171511417402017, 0.1342763216496084, 0.2802435147932561, 0.026373352987633426, 0.11331281620145503, -0.05972938618055834, -0.020744065178880278, 0.09169674739042281, 0.20418453256337527, -0.07572449774118264, -0.08233556027290029, 0.05984624265883412, -0.21342910312204724, -0.14563516317764091, 0.20119067654431638, -0.008777069853713218, -0.07153862239754741, -0.06448261609541289, 0.18032998028865732, 0.10702761118223142, -0.07091370689871573, -0.14940811462923606, 0.24167488878075277, 0.1207536604816066, -0.11234689164159599, 0.02876403986734214, 0.09058400379802363, -0.06493608703758494, 0.08385883551366492, -0.24206949842211586, 0.19682851787283728, 0.0134523570624974, -0.04281243862974555, -0.05232103512741596, -0.07390358231473221, 0.04976829909435284, 0.04344685346402242, -0.08917923719706734, -0.0006328803447296958, 0.08399966747750547, -0.07500283441719446, 0.08814392486306091, 0.25407803363906645, -0.04778963295496764, -0.01585923440895952], [-0.0532314695940364, 0.03245978766108302, 0.004764657357390233, -0.02120299845412139, 0.06335632933831548, -0.026906838568903215, 0.045573163427834594, 0.024762266041854324, -0.062216610180199375, -0.09563309400833045, -0.13197601547967375, 0.06669413497162605, -0.009248138426519037, -0.010367418419270719, 0.056930348205538994, -0.19780021912049997, 0.08502672678013071, -0.06895159501053712, -0.03509052747512825, 0.003773659532108822, -0.015149708781072621, -0.1054693998676954, -0.03737079788321347, 0.08715423817769548, 0.08410747873663806, -0.06890307732333241, -0.15947380710223014, 0.12037518201340341, 0.09632933774746325, -0.031250419628665434, 0.002474019636463609, -0.034043054192380094, 0.07132027467445681, -0.024944955724151372, 0.022510362841240233, 0.05356105777448509, 0.06764690489613658, 0.05993890699977215, -0.1334169071212424, 0.04569047707568455, 0.19620840681457907, -0.09924798913344093, -0.026238652585308712, -0.18724887151198213, 0.1359779709776474, 0.13210547845804696, -0.07343458348842456, 0.12965686408506888, -0.10569834922234875, 0.17739506003973035], [-0.00022091034832627337, -0.03472452490948798, -0.021328611204971, -0.03721042011807099, 0.13332679596760047, 0.026026432237418382, 0.1598619338598711, -0.08405808593631217, -0.021918105103210732, 0.034157813107373675, -0.07982790104073369, -0.14772601494944199, 0.10138988820773896, -0.004734707188636421, -0.08608757576232048, -0.10070976203970765, -0.08397900971616304, -0.013182412502523893, -0.0682395341721095, 0.17517486564761645, 0.15541800969054242, 0.006199400015249762, 0.08508735869587378, 0.14474320663539592, 0.09475520854486286, -0.0985709347933603, -0.06882623204999071, 0.14890168888207608, 0.11668995899255592, -0.09755437203472889, -0.043719761089693034, -0.04862770238046323, -0.04362043238759438, 0.04004890854515404, -0.15599448579814518, 0.05075360782109346, -0.003730350393558708, -0.039863172685570845, -0.0592636036572585, -0.2284505308830376, 0.06930332925322222, -0.28399035741112655, -0.18859053088241468, -0.08698472346846015, -0.06625112208602754, -0.11102294985464124, -0.11506203162822215, 0.10342760765199142, -0.005229485266255951, 0.0029546052044838256], [0.07367221931547151, 0.1497771352059871, 0.2839526669530068, 0.015945131431887426, -0.03943798783049499, -0.11829745142856907, -0.15062588925341014, -0.03717876694868278, -0.04675271087462454, 0.0885606981962013, 0.1191286846214363, 0.07220607422585247, -0.1511411384906943, 0.09977861380730803, 0.1564481801401499, 0.07039613046699608, -0.005838585169859178, 0.03783501121147326, -0.10876094341116739, -0.12068185261937914, 0.03960233517191221, 0.010678703566080892, -0.15552016199118648, 0.033198012376567845, -0.03801834909525103, 0.11394623362599064, 0.04382554348077205, -0.09107615697763548, 0.04054251462383545, -0.12745125861225454, 0.0337340498793107, -0.020053063905984964, 0.14006902940772967, -0.14812255585884201, -0.1573005041304909, -0.11458592808097738, 0.010020188322516601, 0.061379894129833676, -0.021060752534905164, -0.03959058113952076, -0.04337486512927798, 0.01582295711059599, -0.1315752932839963, 0.08612371381944617, 0.02047153180292506, 0.11951567112630238, 0.16200453022858838, -0.07130795663061741, -0.08016296108212832, -0.16134407110172258], [0.32508828051348904, -0.11227750417473799, 0.12091753188632165, 0.15034319185214629, 0.11014617789746363, 0.11281456430890567, -0.16566255853941492, 0.24296878881309825, -0.1012345935600031, -0.0593629006534802, 0.15820116097814627, -0.030672136615763335, -0.17285067814231098, -0.2496149113666981, 0.13769038173986145, 0.036163323780829024, 0.05566933690156458, 0.1939398008022603, 0.03121259586562222, 0.07229866267963023, -0.04573921390961799, 0.06023077066418086, 0.12817066141393546, -0.056274369886783, -0.1569353258996769, -0.002540101791161786, -0.07661478770896891, 0.03550181110800664, -0.1579932516412665, 0.013511694891879499, -0.02909503444399472, -0.12825937313949118, 0.1459379620705874, -0.10567251397704835, 0.14417244417351155, -0.27597333005665403, 0.04785171798951283, 0.15479289855194062, 0.047822292699170356, -0.019847034416834657, 0.018736635590195307, 0.1301257650413654, 0.16016448358920918, 0.2119855479838736, -0.051263931568754945, 0.08838076088369953, -0.07380761118919275, 0.142599469767433, 0.21527712624592768, -0.037421329593727216], [0.07274216844662958, -0.06776163968884207, -0.10261952965394767, -0.23303744063857249, -0.10523473634534913, -0.00380343199378568, -0.024649088630433538, 0.1845534173172189, 0.03301858904971831, 0.04976825316776318, -0.06574052001898513, -0.034242045245684014, 0.13871663309941756, 0.0910468222479634, -0.2616268315156868, -0.06744978559414776, 0.04643436899861004, -0.10618991221073408, 0.0002841503623924672, 0.11167941233704995, -0.15743125304810018, -0.08332673814841256, -0.05683026870930793, 0.1195530971969343, 0.03519248908074107, 0.04320391368712137, -0.10105670795434601, 0.04526680838332268, 0.03771539269727072, -0.14262696399182118, -0.10597604744887294, 0.07802101938894769, -0.09707130881154491, 0.13301881574553817, -0.10149062337083646, 0.15561432535266337, 0.15233278572321518, 0.07948376501232009, 0.0065749969565429885, -0.0509476704193479, 0.16875508645812948, 0.03618486686643272, -0.16715664207385467, -0.0028723304560344387, 0.3161326551555418, -0.1102232691601822, -0.05206521043430724, 0.1086128623390426, 0.055466187192888004, 0.09752401973489679], [0.1572199445928517, 0.04533688509309788, 0.00750980733674272, -0.05409199008451124, 0.04915174543643968, -0.036220929064198513, -0.20590638604786737, 0.046635775854918286, -0.016515409294558626, -0.0724189139684603, 0.04323057865289192, 0.04727621639579272, 0.05623156520514895, -0.14715846824248652, -0.14329905390680658, -0.08255623816984921, 0.06221537898400953, 0.03096586000446991, -0.03580719082317527, 0.033493756388220594, 0.11353624603595637, 0.05797932692136525, -0.14258600613977965, 6.64643812310512e-05, -0.02795500535087018, -0.1304148817921453, 0.11892963159035286, 0.027970035228617095, 0.0434116805126379, 0.01413267798176131, 0.026812998806383253, 0.14897636019493832, 0.04180844682356962, 0.03577995555868529, -0.046841171734232225, -0.1657884436736815, -0.033533478899233526, -0.05810376398567869, 0.006382251878462245, 0.06239325776463177, 0.08325773877241095, 0.1320220058378418, -0.20055647928793432, 0.06578887156423296, 0.06782058366253119, -0.008453930025642587, -0.012835132118776653, 0.09509167518269752, -0.11086641474888956, 0.04002937299486632], [0.08407549140183056, 0.0940038240446066, 0.04278732526353674, 0.057248989448020884, 0.17323982115138659, 0.11877491821431338, 0.13880504517582565, -0.0710032940001464, -0.11673865128346918, -0.0133269565600044, -0.10731822429043833, -0.01250718584804481, 0.1323131298733962, -0.13255826076127358, -0.004827201232869182, -0.063558061664715, 0.035044366335038116, -0.10949609734318574, 0.06540731440292272, 0.15373184378165436, 0.174606036273618, 0.14243194164532716, -0.026499852569145967, -0.04068227017902196, 0.1855795801439067, -0.20271787748531686, 0.21260951286323554, 0.1254629639538769, 0.21850129130730153, -0.11112781249991564, -0.053992934800069586, 0.056984456224587615, 0.03798937222236771, -0.03932831841426079, -0.01507969326011205, -0.056260612363658584, -0.06336341405018836, -0.04037762968373565, -0.08882922508711857, 0.16435823316590334, 0.13709227103321978, 0.024757822242542804, -0.08316613453802803, -0.018811836451456038, 0.11888141108405964, 0.21316753647840936, -0.04914113997990967, 0.0996241746276325, -0.03933622252234729, 0.05337885631458049], [0.2292751307048162, 0.00494844039347558, 0.27382469133042836, 0.07394231716530862, 0.20272943278317626, 0.04306979602965742, -0.08232279410825481, 0.09587102455611066, -0.08228469575959398, -0.021646426787194396, 0.1765603034074208, 0.04982286377621637, -0.20934450047992262, -0.10025556498197405, -0.10308014073421153, -0.10165268455513723, 0.11665936804119183, -0.019807294235344976, -0.2049983164726275, -0.19616139940307542, 0.01171179780186574, 0.19485354562672402, -0.08255575286046396, 0.04382948834116015, 0.26201974958296825, -0.26220588425702746, 0.16178622519508573, 0.09238976309406602, 0.09037726288314943, 0.014079975019056393, -0.15032606372917617, -0.009082639216942273, 0.020463598591069235, -0.20641536518742787, 0.09234680670191561, -0.1750060639145987, 0.0023837192027907203, 0.1968325316482679, 0.036912458770957814, 0.04981525945140399, 0.014700711383589114, 0.1901949557850141, -0.21797192644303376, 0.23436853109203912, 0.00978889102686966, 0.23328892165309711, 0.026106328988305023, 0.07120204180812402, -0.1635353149923332, 0.1434278422126199], [0.12300944809113203, 0.0780931502655666, -0.05882663271539014, 0.14589249175319177, 0.04031330050260159, 0.21083739002436913, -0.016173678600418528, -0.06434890054711444, -0.13613183808078774, -0.2174990696013837, -0.1538516289431117, 0.11237287433179, 0.25744076845702196, -0.32518512628740703, 0.03396662610866557, -0.10373107935386179, 0.25275988393725723, 0.13879120607392456, 0.19298036973986035, 0.0640582035831391, -0.02947126541377611, 0.06113929797613069, -0.09006728383500584, -0.10550411933935674, 0.029762199443504247, -0.30080454932487394, 0.05897471009623287, 0.21582551543561881, 0.11876736863440877, 0.05615084652761945, 0.12201626458262939, -0.14314183011796858, -0.011610732696260137, -0.001326200910319207, 0.23049524932014978, -0.21675236165949185, 0.044575573312513946, 0.04070525795355417, 0.026992874494531888, -0.027811652125255687, 0.15543982970044892, 0.1604510102076102, 0.06853723575544338, -0.09469496759289416, -0.004811133726301198, 0.1857930682231636, -0.14377213027288863, 0.2850259501988545, -0.2678450541760357, 0.1790725572713968], [0.011065462734538874, 0.06304769440811768, 0.00862491777053133, 0.035114566473206946, 0.06975059050676587, 0.014655216652992986, -0.043301781013145454, -0.14666013951598536, -0.008954377874672964, -0.14597659888007367, 0.09858491933164833, -0.00537216340042617, 0.037470387927253004, -0.255242263699773, 0.06226645224420715, 0.05839260494164121, 0.1357551860396619, 0.13773456651729168, 0.06426611117792855, -0.02781445909789185, 0.03544650024540175, 0.1683257652841119, -0.05415639045717576, 0.033001896607052286, 0.10326456565247108, -0.13818215290988617, 0.30115731965553766, 0.06943708067344481, 0.21904501299653606, 0.1012435807124419, -0.13698020116565984, 0.1756577591882288, -0.06550399750427809, -0.006548460441775844, 0.0737675716477706, -0.1115599587924421, 0.06117501590578024, -0.02235107575179164, 0.10435606233422917, 0.2087946583172227, 0.008360326600249414, 0.09880226012025277, -0.07775549250948549, 0.13282444002313432, -0.09523689907945863, -0.03908064729542143, -0.015622933427214304, 0.11088457707597581, -0.24097289447737508, 0.003673747764703968], [0.033351063134359996, 0.09337513718173508, 0.2804441958945431, -0.16207733151172968, -0.036270918300250865, 0.1410880296249419, -0.003938496602607466, -0.09865262571692156, 0.1614922142995138, 0.03291368714351129, 0.23075188731956078, -0.28340268216484193, 0.17543224921982223, -0.07177663749576643, -0.03175343087809986, 0.2025771615294363, -0.12934640795500346, 0.14782771059520633, 0.11670597205735343, 0.04403856328029006, 0.148158304377391, 0.23876208140561042, 0.07446163638657026, 0.0055469201313427825, -0.22084561916461717, 0.031327761919534916, 0.058624627832277516, -0.12128200943716266, 0.06243776030322193, -0.15918084935414267, 0.019628366867013455, 0.020758179293761825, 0.03712241479959053, 0.18224937702046878, -0.11133860510542427, -0.009539556355943906, -0.09501439095638467, 0.03149217196508637, 0.04371637341178223, 0.14962267925454234, -0.049115027310893906, 0.035269865783091256, 0.1881852601573973, 0.18383831363837402, 0.0975957417096786, -0.15243962632463498, -0.06273797414584602, -0.015860185122980826, -0.07238332394009733, -0.3437691450182238], [0.005031956225260504, -0.08782863604059347, 0.28029061924420057, -0.23774863437717378, -0.017546669597600692, -0.10908852948929747, -0.1344506809434181, 0.13120409488185883, 0.12934226372180613, -0.18559306642945694, 0.32322645887130075, -0.1354611594581677, -0.034789005810173794, -0.0022554972030643613, -0.23188107801855729, 0.1393856737044289, -0.1933007241128408, -0.02712410397680072, -0.1637732826897465, 0.26901713235854846, 0.0883826666214006, 0.22302814051345368, -0.009103730887959922, 0.10048922620437621, -0.040695882355729636, -0.00593594297973237, -0.015861014815150218, 0.013536022635327783, 0.14329954403522913, 0.04429788327846108, -0.13162112769054687, 0.1920180709174157, -0.10678684964775091, 0.11485665996022491, -0.07587754231787035, -0.15720334754947574, 0.03432848198254094, 0.017225137292102545, 0.1212676379017238, -0.03521874509723186, -0.010524238246900745, 0.08950009475584589, -0.0052909114287838285, 0.2280328028119221, 0.19618125941811873, -0.16550156981440153, -0.0884704056642886, 0.13161715830275403, 0.13793774365256822, -0.21961061498418327], [0.04626633885117372, -0.18173565933806052, 0.16788324442549113, -0.21459522923508628, 0.20869060507789883, -0.017290237900884926, -0.023829426919896618, -0.13162713088987832, 0.21432725376651454, -0.09382142799363026, 0.13331126505373486, -0.2726174760731503, 0.14793212668470057, 0.09983906691918541, -0.2694101148441096, 0.21047929142690128, -0.23752698670932915, -0.03679621610289508, -0.09431305740293112, 0.1181080261127744, 0.19393926118788518, 0.06805201057528802, 0.17610381393083127, 0.1912632207158499, 0.006487133586213297, -0.01012719960348032, -0.013663737101244501, -0.0419022476001197, 0.1040591136505556, -0.0993364147106715, -0.11908437842112082, 0.13200547137636556, -0.0295110486987641, 0.10149873519111004, -0.11072697767325379, 0.042174516580924006, 0.10362825723546572, 0.10377280842779446, 0.17792397114225136, 0.052373940638019326, 0.10947607939801109, 0.03929836007648504, -0.10961721744450909, 0.015189217364643605, 0.1909589460474108, -0.22112466858786306, -0.16568938414281567, -0.005975320029225008, 0.06134951521743337, -0.11420409169936623], [0.06810428927704738, -0.08448395261816335, 0.07004059853270926, -0.008398573242015595, 0.17575642257835947, 0.18677502070087237, -0.0849198398230102, -0.11466297809091651, -0.0190039142060554, -0.03982485801805125, 0.03234735888765323, -0.30064014211580037, 0.12630639423137208, -0.05901413212275036, 0.14774706505345792, 0.08734663148960471, 0.0725014844584855, 0.12392942723533015, 0.08084455152479178, 0.03148861446272209, 0.15472049705726484, 0.16788312056343457, 0.06512910476895145, 0.12632469902489218, -0.047363396458171114, -0.05793360070314108, 0.09229808927270669, 0.11242255700195261, 0.10634763635893903, -0.1329382586776331, -0.07452181715628801, 0.12582076672164613, -0.02477049645219336, 0.07334013976421297, -0.028093849697247025, -0.06737641865782437, 0.12969264150732773, 0.03591026260608534, 0.1456142042589763, -0.03872428673646651, 0.08022498436283813, 0.12794682549850933, -0.16665733642718944, -0.08492041660440064, -0.06707376473120612, -0.07241757621565965, -0.04295406743949388, 0.061397098214387526, -0.007304238758743417, -0.1994791396642026], [-0.044377477495452844, -0.08574336697145751, 0.05060617555258963, -0.030038760940891685, 0.10783436064268213, 0.19782131378964923, 0.13419168567327341, -0.07725059320730487, 0.10349559895711828, -0.05442958994978167, 0.0001122152372591198, 0.15162713600522826, 0.16491995727490813, 0.05556768874868059, -0.09068290168028663, -0.016475711794437124, -0.07612520451184462, 0.0579875828436195, 0.003955605909865507, 0.019872523281209226, 0.10497520670980948, 0.18105933762639467, 0.20455664452009584, 0.010520718702046667, 0.057153828870169655, -0.0750939527568941, 0.108649496531353, -0.13191366456649137, 0.03154424638120777, 0.04185850853537195, -0.058423421355925785, 0.03681381675117704, -0.03270218176802313, 0.0876123346044139, -0.08045238719272499, 0.007375921972537727, 0.10974678661842632, -0.09734220123433976, 0.05671799171088401, 0.12858868836292126, -0.10103533690592377, 0.010124356075551256, 0.07285346364750701, -0.004501676496426508, 0.04872543900210694, -0.06384052360788649, -0.09044963416616476, -0.0022477385097835517, -0.1595604761549499, -0.17525486006970373], [-0.07560157546242192, -0.07512840207696277, 0.018039823589356324, -0.003053750242390991, -0.017284570902921768, -0.028101073756549796, -0.17446136672177623, 0.05119433820341122, -0.00845256248277668, -0.06929553732015102, 0.11523221786899919, -0.008618554418451415, -0.1819223447203371, -0.011672992236913824, 0.10957755032734796, 0.15338620415577633, -0.11850559513284305, 0.04640787388419899, 0.019397531633897392, 0.058673307732486454, -0.04974057595122164, 0.05878853672331043, 0.2846694142272686, 0.014510128767920032, -0.08111536376108289, -0.0015121920210461712, -0.11403060435037607, 0.044958724675813445, 0.07085081992328622, 0.13368780206211017, -0.10617868511858458, 0.04058384294794656, 0.03964412638666224, 0.09765859024837047, -0.019943128622311262, -0.19236015486779917, 0.12708381914509448, 0.16845367158823882, 0.10012869073369916, 0.09701187791778423, 0.0013455440504279192, 0.1481054190642139, 0.11036788404263051, 0.061439953936571465, 0.1013038991432621, -0.04993057080468987, -0.16217894698552585, -0.09601078459349366, 0.23766744120401348, -0.12652579454889346], [-0.14314940628660291, -0.049520674686971376, 0.09919289117289541, 0.010082808534977731, -0.08544216490398182, -0.06466046620706363, -0.21973976977345308, -0.05662982372643191, 0.07142923040735863, -0.2687869282169021, 0.09002781070003615, 0.02362416064644329, 0.07783366857607633, -0.07683246219590813, 0.22997302862393135, 0.1876915194842888, 0.018429129684686837, 0.16731756079278093, -0.012275933196201894, 0.10504392151151168, 0.1626169136680264, 0.1858162196876991, 0.26079479525284427, -0.06443522046430769, -0.13083039439165908, 0.09797971155593098, 0.009671554380345481, -0.001152690059113161, 0.048306102861570076, 0.018577511092664967, 0.04376367933230326, -0.05704855953774386, 0.08944353670387674, 0.15273951290599974, 0.06374927979257915, -0.22395733273682955, 0.12561907643249942, 0.17696038591922758, 0.10490622696978613, 0.07446557263479538, -0.03388317951992597, 0.11857928940239901, 0.0884069362234561, -0.1208193673515002, 0.06143245549677691, -0.10026776667047524, -0.08067121035479616, -0.1275943950177356, -0.1695094659737034, -0.011171961690718374], [0.10234436099203448, -0.209019370742926, 0.1323105529432918, 0.024398926406671753, -0.04196002439861937, 0.00885872180507503, -0.23619859291588327, -0.1320389185092717, 0.09840140249725551, -0.13942080938726237, 0.07773105923409249, -0.07086858388249002, 0.03756955872568522, -0.09768137985813276, -0.018243327793173288, 0.11893341573865053, -0.02166702867516252, 0.10515667805810465, 0.12580459601896887, 0.07939925539628467, 0.11500620000159094, 0.015893999091767898, 0.1838052934023364, -0.014433781584603405, -0.004855531258855525, -0.20785662159761364, 0.06291386316668644, 0.034918231925049684, 0.016688969349349412, 0.12495879608009258, -0.18006175787000794, 0.019486363952911655, 0.026190151082795633, 0.08933090704834007, -0.05095540545541694, -0.1289537163371831, 0.13891942743652094, 0.19002253743570288, 0.023745505917631644, 0.1835279695704436, 0.07050152527248542, 0.13562642289033558, -0.02782188340583433, -0.11498605777050154, 0.1288705133388395, -0.020034204224818185, -0.0897777062393939, 0.09512909046982648, -0.1518968768792161, -0.19739101549074534], [0.07397530588064337, -0.21101008800845875, 0.12705769404120096, -0.07859737759404578, 0.04738689396584601, 0.0894245513169032, 0.06878766543690736, 0.06954128671798528, 0.007900608369851786, -0.03531537283235039, 0.10805060648312788, 0.09093876581239228, 0.09733077829965803, -0.05399514602856362, -0.11794451528219538, 0.07188951017088357, -0.09670555284847324, -0.006083896046279915, 0.0033972473136167393, -0.01808606625343571, 0.06850403088382205, 0.06337240839463659, 0.09761272823341968, 0.1077495727587343, 0.17963898691491786, -0.1771853792655148, 0.09182888135906374, 0.12919419878929223, 0.08986327205002698, -0.008047376146217089, -0.015313844229691214, -0.06385729103214238, 0.10419467067871134, 0.0936593916887199, 0.1186286730301467, 0.13402565156939475, 0.12862642100077215, 0.12622023282063688, 0.0949712054345527, -0.12539425942127763, 0.09947926013379346, -0.039347436711922396, -0.1454220875981609, -0.07877517057605857, 0.1855078088478981, 0.09806498703556799, -0.06306389749560101, 0.05857331765474314, 0.11217083972987786, 0.009935619109890355], [-0.06846797861816366, -0.04241251838603848, 0.0003160817419224564, -0.06484729702153905, -0.0800347893273604, -0.08752672398325832, 0.11452793175593373, -0.037156243573032176, 0.0001223405250128966, -0.0030180501455560073, -0.09748946429525954, 0.07181220739565601, -0.020694202040762427, 0.17610280060987785, 0.07447739871575805, 0.06885603905377731, -0.07059086341720276, -0.23833015970334312, -0.18458690528264804, 0.13555851596564525, 0.06489666280278975, -0.029321972895388498, 0.06510064801351245, 0.07531928357756937, 0.20203804017936028, 0.01961187864592998, -0.013112669337905954, 0.10182865737412092, 0.003161945272187793, 0.029265257079653363, 0.04610366131074914, 0.03376695642024076, 0.03250699442144882, 0.024363304686055957, 0.026218956433256706, 0.038560190995695506, 0.10840591388369945, 0.11854066914852751, -0.052524439803855134, -0.1727617898083824, 0.19093464615663258, -0.131424177422484, -0.13567639933665535, -0.25745603534846273, 0.22517984848759595, 0.046859053377995674, -0.04557941834997126, -0.054768111465382525, -0.028141970844099497, -0.022888641859900197], [-0.09149084529787392, -0.049377842311404276, -0.02698188255581762, -0.14670290957558618, 0.042840468678339814, 0.19597694737731353, 0.07836445660111399, -0.18440849647572455, 0.03152994651580391, -0.03701606374582873, -0.031502796253686155, -0.11626018523428909, 0.2525717143871939, 0.17743014090679998, -0.13053036431484152, 0.06013566181445342, 0.11837165149664121, -0.0010738656038199125, 0.2503243078079647, 0.07574337182834259, 0.18164981877956476, 0.0739491129565691, -0.11021758621053236, 0.211432944789983, 0.10425492848108463, -0.05705112662711944, 0.059025660792887194, -0.082528554489469, 0.07678087492203693, -0.18820649518842053, -0.02359973183281721, 0.04679443834683827, -0.08437569480745996, 0.18716598220466552, -0.1359745085121519, 0.1554060754056905, -0.05329956425988786, -0.23664743824904913, -0.042185123036866536, 0.055296353010402866, 0.15903587200128233, -0.1147622318091266, -0.19491773078396765, -0.16593164991057646, 0.07876140215097163, -0.15202278443420528, -0.05733670498238897, 0.19038797194379065, 0.03742094539678108, -0.07816533758429293], [0.0005213232449778679, 0.031710616467603946, -0.23638943960840825, -0.17354178883209834, 0.14707558660201464, 0.1447603419744015, 0.2774764012545995, -0.21741193128868885, -0.035313929145218366, 0.037545128813110874, -0.2536457889665655, -0.01722899105665168, 0.27256306721777424, 0.19940590556666865, -0.2795542211621289, -0.019968919651485124, 0.11036888086633165, -0.11658537667436128, 0.3612258396150537, 0.005462878157374801, 0.049263519867945714, -0.03499026263808156, -0.09071749319492545, 0.04924766476131839, 0.32723891395589183, -0.11160578509854502, 0.006945496594457133, 0.031865730615038106, 0.19762632620676288, -0.025510454767921874, -0.00053839210729652, 0.08981321748947375, 0.04175420806124882, 0.13864570030027187, -0.2145784195649969, 0.23104583684900068, 0.10852188647794934, -0.13271706368253872, -0.07817704696206204, 0.21561545549972477, 0.13168807548423245, -0.06579950254501062, -0.18321204160837273, -0.3028550201838595, 0.05304459661533167, 0.13160358117304963, -0.13012959596107934, 0.18560383483631632, -0.04877852658551503, 0.0396955067759083], [-0.1678518466126935, -0.012460349063579701, -0.10394096734287898, -0.2772555154653391, 0.15414530739040996, -0.06641746747301787, 0.14632484182843344, 0.02305936868329618, 0.20976731806380763, 0.04564376154486249, 0.12322535576172687, -0.11554451363110772, 0.10425020885024863, 0.18150219915732232, -0.1618705330169038, 0.10653324341211912, -0.032777617195100986, 0.05309289502887032, 0.14696088822008072, 0.06456553529366708, 0.1106219787450973, -0.06197085254695734, 0.15650446891874617, 0.1866932537279193, 0.13705573031483637, 0.1582565311460574, 0.010148145289765148, -0.06851174575025307, 0.05317574500933386, -0.0658056067563957, 0.01702507699484442, 0.10225136197338505, 0.048790334858867385, 0.10788584792817907, -0.18409890250361288, 0.04145189185866222, -0.09034454171491463, -0.0945845169276646, 0.032965201748244466, 0.3851649739525419, 0.08323702007778656, -0.1543863958937114, 0.0858129004910184, -0.13088768277277094, 0.05996095307426899, -0.12788309284632193, -0.1313615799783682, 0.01295013303668311, 0.2610942461707153, -0.1873187141472857], [0.046519909341803355, -0.022664926577480853, 0.047877277606507083, -0.1291981541531735, 0.1879991653023419, 0.10623595070140275, 0.13660097114124395, -0.092705544294358, 0.19759092051851482, 0.004986510278483587, 0.20819221281079944, -0.1400303431740782, 0.07600919545928353, 0.20615065983152345, -0.23215226763178096, 0.12125638561020165, 0.0479426863461459, -0.10319611191493804, -0.001884713296040388, 0.042983627079865104, -0.003951654989546645, 0.09169277415396727, 0.1195759696835078, 0.1410664381106632, 0.18109761644956612, 0.08562105976038517, 0.09670777597929811, -0.09764401279087702, 0.0886584177362897, -0.08642269956523738, -0.16520258447195088, -0.03253048150141557, -0.1147133255999599, 0.12462658953753214, -0.029594858610764718, 0.17652458520982384, 0.0012731295806601315, 0.009937763830677633, 0.02411682324148046, 0.19458808901036564, 0.003486590137081964, -0.24581761704975455, -0.12666326036058667, -0.0891161380922441, 0.0005537154053971708, -0.036520616637373035, -0.07976824517759785, 0.02440684358502118, 0.12612284396614806, 0.00346824886234165], [-0.19398561730330105, 0.2079395383296044, -0.11695418750234542, 0.026400735203630173, 0.03974997968606196, 0.025791770770085768, 0.1893865519798933, -0.07181557383018683, 0.08231385517366752, 0.045102249989054675, -0.03910441745804131, -0.026868336853585265, 0.2510362440959481, 0.005902923392462262, 0.04665224661394769, 0.06877700282481354, 0.12668069828684236, 0.22625929845953122, 0.10745901652300645, 0.03412574012508374, 0.2196870978181405, 0.05167731306491892, -0.1275610183103677, -0.14404791398494168, -0.06928634079579139, 0.1601125591713951, -0.00779378804153776, -0.22481936612636308, 0.07665164137777042, 0.11583824262642366, 0.12869043658914855, 0.17081462735237188, 0.0019067608261619609, 0.11396906632828326, 0.05570587595640791, 0.134874212718846, -0.06489612809642752, -0.11912108343762152, -0.052702437591343874, 0.06887450652070926, -0.18012311186602625, -0.06849117880182817, 0.200592475105366, -0.07985391581566852, -0.11159391576135815, -0.017227631410824798, 0.1134841275413572, 0.0619046598241593, -0.005810141098248064, -0.042451380721022385], [-0.18209341539622415, 0.20326919027197984, -0.20190562000068268, 0.1065395882536093, -0.032545368900691464, -0.09645830038088908, 0.1994747058105189, -0.09190049728822579, 0.086425546551983, 0.10409869177759566, 0.06052297862358174, -0.11112106024048525, 0.1864774235520769, 0.22230241579196025, 0.041388878185155756, 0.19104603314483076, 0.05709409563062388, 0.07204888848004556, -0.105223200649697, 0.2223893319863638, 0.06368722859248495, -0.020154541693010966, 0.014080345055155843, -0.074644582021779, 0.16342548776870783, 0.22150298786548192, -0.037520461321431546, 0.0819290128847493, -0.0729526827484389, 0.049746859134877676, 0.24888823872697108, -0.028087747131997836, 0.021113154518172715, 0.16808006919021826, 0.017086795304979, 0.18719118821436292, 0.10196229923576076, -0.0974668234936813, -0.2280244366703755, 0.17551000472937506, 0.04194868814174185, -0.061492473076217996, 0.21370834933803046, -0.2975645503305986, -0.03559213648816217, 0.1404145016456759, 0.248066476348182, -0.0821761679535532, 0.005988544518341735, 0.27394061086660826], [-0.1590375590170761, 0.24931308955159395, -0.12694304034871665, 0.08137711564065395, -0.22613781873498756, -0.004791886761812255, -0.02901839278285578, 0.11645898310341667, -0.009924561810479756, 0.13394668770172619, -0.1650820541500869, -0.13545927220336976, 0.06376849715518688, 0.19235460824307896, -0.1799020873118863, 0.06092342698638606, -0.0962354959282462, -0.05015525350857017, -0.29681370793179446, -0.0034189596749577647, -0.24952692653366243, -0.06962959302772118, 0.03037463147140334, -0.10569113516821992, 0.07095478901789008, 0.01875468211650726, -0.13694354626389235, 0.13537350227497527, -0.02466993056988242, -0.01692582492823093, 0.22233348271342243, -0.02603398858223679, 0.28678842189744885, 0.01019848016863568, -0.10910970789514601, 0.11103804265289753, 0.2687449907930357, 0.2785803739007323, -0.22086412484343035, -0.19526592980751323, 0.010211575497750319, -0.06975609587460455, 0.19025052326076622, -0.24932994309762332, 0.13454498877682045, 0.0871358104470008, 0.2754913034954065, 0.04615007049024338, -0.17063485891552765, -0.0955912068322313], [-0.24533180147646727, 0.04432044273131724, -0.16184995951483452, -0.17741031335287183, 0.07473747869319741, -0.08702359054184411, 0.20744143162959233, 0.12184450004852124, 0.20926695411719626, -0.05863465164094771, -0.13826423224700635, -0.11458054939168008, 0.03385338613368613, 0.1441913211170685, -0.09989567989395925, 0.05512147217346339, -0.05269205933821574, -0.1049702935518443, -0.1447769609974339, 0.22502835104890234, 0.06646059903642063, -0.027544254030846673, 0.018215821577915584, 0.10755302402353428, 0.08951739419450606, 0.0628239913059283, -0.09251967440951234, -0.09896747847846328, 0.0628744344707584, 0.004365669169736673, -0.0619161848604597, 0.08648739640278681, -0.12614159646559858, 0.29532343490766105, -0.048857901366450136, 0.16075013719361272, -0.07559384934341684, -0.08779297841823548, -0.05516089059884893, -0.2254263338215657, 0.044098870277968064, -0.2981602170868131, -0.07148635720664565, -0.1672880061270947, -0.0034571200511371867, -0.08245610252103518, -0.1522604258836921, 0.01860117243093961, 0.022980231811069812, -0.15674142172249408], [-0.12235051846936454, 0.06707714738729081, -0.21862745089576, -0.09383968335376276, -0.16433015795497624, -0.004828129597440728, 0.22443807096465476, 0.20809991675678258, 0.15687205242850064, 0.17027000718382942, -0.03332103117811174, -0.0005132864147859217, 0.07527352536563303, 0.160896392661248, -0.11735525676995734, -0.09429585757695877, -0.09052112500957812, -0.13591822377281812, -0.15974111640955752, 0.0352959765544376, -0.035027640502442295, -0.24664932569625397, -0.007123605166676795, 0.18780163719434229, 0.12282596228840995, 0.07657490892460408, -0.04583451346986416, 0.18984868219228518, 0.027388253252598423, -0.12194451652965513, 0.04165351813475129, 0.0006887944250323227, -0.009170549629709764, 0.03347077118294252, -0.1534750980451409, 0.1995858704034515, -0.035448854749159195, -0.03109783081986389, -0.19169954967284086, -0.09573213751364643, 0.11946006080467225, -0.2985534170897343, 0.05236423559910977, -0.14380338447183322, 0.006060181828455758, 0.011014160636822116, 0.209405161281624, 0.07107519616109417, -0.09597792782496518, -0.10222975293688598], [-0.06294724382085808, 0.10265416166393276, 0.04259032612674596, 0.16261957628550916, -0.006264630504678158, 0.009040243808123967, 0.01569815176645846, -0.03335972754628729, 0.07264220713424088, -0.09522466143523464, -0.02208573205382916, -0.1666649525076023, 0.054106187727700684, 0.03918275344545582, -0.11535152704796979, 0.0167681796457976, 0.08785123558663314, -0.006934642449448148, -0.006198127697015702, -0.004363840916309373, -0.0589870670048596, -0.05200346409797997, 0.015526943137323107, -0.04165328677596391, -0.05961051568808985, -0.000549644527580581, -0.059296939064850916, 0.024441093286154417, -0.04074224155213834, -0.033205888716433464, 0.0891753601074313, -0.11152467907951528, 0.0203916204391293, 0.12442600218787753, 0.17792150767840395, -0.09336360211888725, 0.04742422640080357, 0.12521575315436356, -0.10659558662210494, 0.048064866896051474, -0.013035914310338662, -0.08885647252098569, 0.07866507921581815, -0.06000877015925797, -0.09569425358090954, 0.01046271354700431, 0.11166457797552147, 0.007049918809256866, -0.054288385609829626, 0.017331827395304943], [0.0191632685937405, 0.3401062960550482, -0.12182011307388661, 0.11685629378707595, -0.23641402156929206, 0.09866542823166556, -0.0441408557175981, -0.06085268182932387, -0.15868468073554445, -0.24307058074204901, -0.23436195430203666, 0.06591873997477553, 0.27281644099791064, -0.02864643790556632, -0.26182013929748804, -0.10736480574459083, 0.26117936446595574, 0.00019202585969120336, 0.06729786590841226, 0.27233948329288155, -0.11760284033967029, 0.09363582096120872, -0.12687417711114585, -0.19279424371864834, 0.07812168313374605, -0.2200372174418554, -0.02800548446777367, 0.09685950331907761, 0.3176741841665313, 0.29490786005373065, 0.186913190006917, 0.041704078026199826, 0.0815281979326286, 0.11871366241383241, 0.03886581959138598, -0.0015922737011778304, 0.3053204371733264, 0.029504567874722457, -0.05117584411608556, 0.24701429554691975, 0.24957430186222734, 0.2128039572194857, 0.07786822787543901, -0.04356764631392704, 0.258752009134198, 0.12010765536416217, 0.10058875916566204, 0.1565091294078803, -0.33224678217293413, 0.02935204384019046], [0.08810547773661129, -0.1380354403527733, -0.029502387556079444, -0.11630668763757349, 0.07402929639487832, 0.02640746173749721, 0.0053809813672042045, 0.25027979448420296, 0.1952483290653032, 0.0980962404449736, 0.13295605037441782, -0.23539128729284836, -0.16008226555247906, -0.0007554096268425643, -0.07378630990507641, -0.0452921958245709, -0.05543590072728593, -0.1034354514995915, -0.1176258771388107, 0.06384189538960586, -0.20112150135474302, -0.10728034833345097, 0.1262717638214945, 0.00017034619280867344, -0.05993794074958973, 0.12427075326265537, -0.061554039375157486, 0.09620329230464682, -0.05420387330891294, -0.13468865422218948, -0.04665210275442674, -0.1403970525069898, 0.08769480196876209, 0.06207416767348025, 0.08883206171631644, 0.02581853841838498, 0.021563582845390755, 0.1444912299841881, -0.020995305633241312, -0.05405234356475294, 0.14420809677006988, -0.04582027595439798, -0.09598991103652554, -0.004714271468872048, 0.1519966651188463, -0.05756959495735538, -0.14788162828055523, 0.030034985385650324, 0.05461622506076742, 0.0630556141344886], [0.0812169818644457, -0.11670300703528637, -0.016806886119965635, 0.15851434450419094, 0.30578470315883355, 0.17679440539238664, -0.13889655040758625, -0.005148900135109406, -0.15010068039488156, -0.13203011738680226, 0.08900462086889895, 0.1732908497366055, -0.049032070865431564, -0.13718518886666722, -0.050272572712307555, -0.12127237777061882, 0.13515975843970643, 0.2097975942389702, -0.10427956244023524, -0.12641612600942448, 0.015810833325317783, 0.07046487083451211, 0.1713663728605535, -0.1308564101931798, 0.08818041057010194, -0.15609651512820752, 0.06403571754584425, 0.1136535662984982, -0.06559628310385851, 0.0769226225665755, 0.18208362257606234, -0.05354218568628224, -0.08076997208186276, -0.23854413037969063, 0.3626631142453387, -0.31300364632796734, 0.021446053835872593, -0.020858824511656736, -0.07104156163633563, 0.06513364910935296, -0.022028875780678886, 0.06135172083007335, 0.08759365850160494, 0.11005771800619484, -0.08952924331809065, 0.31137290155858205, -0.015423514547809453, -0.014522275843071253, -0.14447949852503927, 0.21012891645515766], [0.08332004428377565, -0.18776718532868794, 0.015929960143053576, 0.1046702731857929, 0.2691435152712454, 0.29599629486887646, 0.19606526228184465, -0.22681576834512773, -0.17103325970582858, -0.0029617031326948334, 0.020882406549895274, 0.08653183032588803, 0.22060308174797813, -0.09347391351517756, 0.10452251277210417, -0.1257643629039744, 0.04788457367616102, 0.1263235661369828, 0.1898919068072769, -0.14249710413464928, 0.17945017533450505, 0.13764619681273013, 0.13289838859582992, -0.11840123969467702, 0.17762769687695823, -0.08931950056320592, 0.20271185777901407, 0.05789927809402614, -0.00011605299862015196, 0.08776506663703641, 0.07868042076797932, 0.06615601601240151, -0.06242816979508935, -0.0562232953908339, -0.0239428898095488, -0.11345752748149941, -0.008377278272517948, -0.07782433549967284, 0.009902147676277647, 0.1763430854601847, -0.10453985202309768, -0.17643352600298787, -0.163147964418074, 0.00986198241342557, -0.21468153968188752, 0.16637397369012516, 0.11818717538717768, -0.07378514804684976, -0.10041500338934167, -0.05720328058459764], [0.3236266067374005, -0.06370457055289645, 0.02326112472282376, 0.05483724286854557, 0.0660630073287431, 0.27984373763490333, 0.026059139570093856, -0.013614965268154668, -0.11937292342004477, 0.08546449619784761, -0.08950758588352033, 0.06072559558676607, 0.014999864990712188, -0.11062998301052944, 0.09619722486874875, -0.1909583420129496, 0.03576099732449874, -0.016174928366834866, 0.08003881403275603, -0.12335432181487503, 0.17113941862846813, 0.06319894480349433, -0.002980051235942373, -0.005453005780288612, 0.20963714233033512, -0.3531972779595549, 0.12515033416315197, 0.1649234869985124, 0.08727307883724553, -0.1887788898605354, 0.0009334397464966985, 0.03386758761081911, 0.013666033729270834, 0.021471805563090213, -0.12887486454595265, -0.13254202950058658, -0.009120242184412325, -0.03402315996296093, 0.07267664450741457, -0.12455925268911071, 0.1836649965852899, 0.07119108884925691, -0.11997232292201308, 0.007773956263139388, -0.015183488693021866, 0.06701414139443727, -0.02428555040900351, 0.16861082448624895, 0.024008281851825703, 0.16495047938788082], [-0.005974133721571458, -0.11950276696342939, 0.13031063164505097, -0.05644409151076913, 0.15943548451500597, -0.07662156164357665, -0.01618079941729302, 0.11417465558551984, 0.13440343039222058, -0.13114665213252952, -0.0038397889199038183, 0.20466041936211582, -0.12564690540954288, 0.1232473263185424, -0.24567861330038082, -0.0661637569304066, -0.046730158266048955, -0.0035036934716941937, -0.08072664654551165, 0.019586558115507205, 0.06213558458707709, 0.03750211165662543, 0.004501654626329074, 0.029055193298887998, 0.05353605221439095, -0.015110731114106487, 0.13752506606717094, 0.009136126835181464, 0.03998291994240397, -0.08689313963131416, -0.15720835489746296, 0.0032372788649978027, 0.07689870415487735, -0.06661754838905741, 0.05843346559043375, 0.00464653588262453, 0.01979827578228889, 0.15923654877152116, 0.11179583533563334, 0.11008382552766525, 0.1211557471653973, 0.02014823962645005, -0.09812029267961352, -0.01589633032345308, 0.10417388404065048, 0.07162356700771356, -0.08618314951589616, -0.04586936543011455, -0.040944944342453715, 0.015692329807415188], [-0.07326882389009187, -0.0608415140856843, -0.06249345186334393, -0.021042875947922868, 0.021452786841378368, -0.001608720748359755, 0.12185839638657714, -0.07715317980699492, 0.02129944134439386, -0.1420426539374086, -0.05077410780017417, 0.08846638329159139, 0.08595955174326962, 0.1443153102539035, -0.0343560010827198, -0.08101045475027525, 0.12576479139581503, -0.1270369707863237, 0.17650699825721708, 0.08530462058340052, 0.09326886295954875, 0.01276875376478428, -0.06514645814056558, -0.030979510443103465, 0.1255269384751204, -0.04411147411892598, -0.004210099363274864, 0.08949354269450503, 0.07807347915357288, 0.025115466117062845, 0.0024610668234667883, -0.2310449705571524, 0.06648275417013474, 0.06279996013499281, -0.06071885956446687, 0.1165342916384063, 0.1718071203597882, 0.11865831293627194, -0.10855942892481119, 0.02107136534213876, 0.1791556617777341, -0.05472844034172437, -0.20993410398123552, -0.21792818873585648, 0.11778089537666347, 0.04025617937565882, -0.1567071095799652, -0.05291197770970386, -0.16922044745801773, -0.01484224011124833], [-0.016394109781885872, 0.03189025002216429, 0.01689276543240566, -0.08453059788790677, 0.12613976898231052, -0.05018506627269331, 0.11369076926298413, -0.14026018355233477, 0.09852309820233533, -0.0013880843446353655, 0.047838667997734154, 0.04748811949478723, 0.011613673513793086, -0.08658684622427619, -0.1377041807395802, -0.016478661855516902, 0.04849048592247019, -0.08344947507715061, -0.10800642581931538, -0.031835836455013, 0.15768501753672018, 0.14051536209101076, -0.037635740484954515, 0.1272635332813243, 0.25669726965592643, -0.2409852581230647, 0.05946021089215617, 0.053912099353320975, 0.1652488591650114, -0.10220276083795056, -0.16434182393088473, 0.0895790133424844, -0.11324576903176317, -0.06042413305806454, -0.18653059181976003, -0.03422704473063767, 0.041572360655668605, 0.02222388648878183, 0.04800206286210747, 0.005110876002579006, 0.054336674511916525, -0.044188318768349825, -0.3234770812489358, -0.03729937397607603, 0.04960255776684732, -0.023923433323474016, -0.026156825692203615, -0.10956811764588435, -0.12082972277028996, -0.14169176111485968], [0.09152900414827383, 0.013183708934805865, 0.24529800649097785, -0.050352160807159214, 0.18164632650248408, -0.027567746258799136, 0.10680382173498315, -0.04988594121401489, 0.12990556560562896, -0.09731574526114255, 0.18289574224692198, 0.24089021919001805, -0.018598822019307303, 0.12589747410911042, -0.11477632144075607, -0.08524985994244187, -0.1406004215314301, -0.05925056180137651, -0.36546735219902415, -0.1330254792715444, 0.06671375158348715, 0.27086183054159635, 0.1049572831419596, 0.11496134357615637, 0.333744793939232, -0.15736139717336364, 0.20299150432716623, 0.16801802436080984, 0.18412151669814233, -0.10922354686065466, -0.17872544269337143, 0.19137766360971828, 0.14163845859850058, -0.15612409204618471, -0.11456771743507752, -0.04064280390050485, 0.1163105260648305, 0.08063792218178911, 0.12988802708229424, 0.013900520291000673, 0.055912675041878045, -0.06480046097029973, -0.18117100924362603, -0.08765989213160688, 0.0032107199586215514, 0.2219366352106013, 